#ifndef FASHION_MNIST_WEIGHTS_GENERIC_H
#define FASHION_MNIST_WEIGHTS_GENERIC_H

// Número de tensores exportados
#define NN_NUM_TENSORS 10

#define 0_WEIGHT_DIM0 16
#define 0_WEIGHT_DIM1 1
#define 0_WEIGHT_DIM2 3
#define 0_WEIGHT_DIM3 3
#define 0_WEIGHT_NDIMS 4

float 0_weight[144] = {
  0.06841111,-0.00453874,-0.34243923,-0.08965309,0.24540041,-0.23309663,0.30366248,0.00569973,-0.33462647,-0.19834539,
  0.39152327,-0.24298094,0.26924184,0.00123720,-0.35442960,0.33787557,-0.18790168,-0.43605474,-0.22409818,-0.13895446,
  0.26581883,-0.25984269,-0.23607279,-0.07822332,-0.32473972,-0.33875120,-0.22537002,0.11892962,-0.20452392,-0.20733276,
  0.28089017,-0.10381154,-0.30947727,0.30228806,0.10429522,-0.23779488,-0.13098082,-0.12908638,-0.00005862,-0.13162641,
  -0.17227754,-0.12792046,0.14487734,0.16989431,-0.12281762,-0.15993568,-0.33860463,0.17817503,-0.25006759,0.06109560,
  0.23156501,0.02151197,-0.20820053,0.14611197,-0.18024836,0.11540996,-0.33599699,0.11984648,-0.17156300,0.18242259,
  -0.00785781,-0.23096332,-0.17613608,-0.39559165,-0.07389739,-0.09330162,-0.30258656,0.24698557,0.06990991,0.08114431,
  -0.02368796,0.07474408,0.28337270,-0.19545746,0.10047657,0.22972620,0.33959782,-0.10784036,-0.61074501,-0.11582480,
  0.21524999,0.08390269,-0.17427494,0.10609336,0.06095183,-0.51686662,0.46585792,0.31992120,-0.42480060,0.24550048,
  0.17785569,-0.13719137,0.05270519,0.07934131,-0.28480780,-0.40280560,0.08750498,0.06229782,-0.21520589,0.11449574,
  -0.32119903,-0.28586453,-0.29505900,-0.24403767,-0.28702489,0.16399024,-0.25275460,-0.15145332,-0.27959055,-0.11812507,
  0.18545017,-0.40522766,0.17695795,-0.27152929,0.21407959,0.34559852,0.15226735,0.29884678,0.36030135,-0.14323354,
  0.12116164,0.19877000,0.04175564,0.38020205,-0.10820792,0.10649393,-0.10063962,-0.12098824,0.22473772,0.17560852,
  -0.39876559,-0.37301886,-0.09962142,-0.22809651,-0.27338532,-0.08134703,0.18887508,0.17413364,-0.03493585,-0.33877584,
  0.04588039,-0.09224338,-0.04117857,-0.23337391
};

#define 0_BIAS_DIM0 16
#define 0_BIAS_NDIMS 1

float 0_bias[16] = {
  -0.05306919,-0.12884551,-0.23093849,0.06438117,-0.09067205,0.28514001,-0.28137222,0.19156598,-0.02977477,0.11626797,
  -0.18738243,-0.21492155,0.26819611,-0.07778757,0.14245473,-0.04831053
};

#define 4_WEIGHT_DIM0 32
#define 4_WEIGHT_DIM1 16
#define 4_WEIGHT_DIM2 3
#define 4_WEIGHT_DIM3 3
#define 4_WEIGHT_NDIMS 4

float 4_weight[4608] = {
  0.03884773,-0.10599390,-0.10036098,0.10857134,0.08015276,-0.08464581,0.22154295,0.12163315,-0.11662944,0.01376459,
  -0.02232836,-0.11317818,0.14747003,-0.05782783,-0.12210327,0.05250837,0.07861990,-0.06027971,-0.03780225,0.01145349,
  0.08051638,0.03893691,0.06657172,0.11392202,-0.05349958,-0.04398683,-0.04083198,0.02885455,-0.11090259,-0.02116655,
  0.13267441,-0.06137537,-0.16123283,0.14663216,0.09333949,-0.07142253,0.04551985,0.03407894,-0.09332515,0.17002353,
  0.10837170,0.08609539,0.02942844,0.06126847,0.05436801,0.02009094,-0.08948255,-0.05798567,-0.12970932,-0.06514925,
  -0.11889178,-0.01009905,-0.15055801,0.01992651,0.19546746,0.13154501,0.06219884,0.17948504,0.11363428,0.22046779,
  0.05703398,0.19595468,0.08304144,0.01243224,-0.13660701,-0.07866535,-0.04372263,-0.04893300,-0.07752035,0.04730080,
  -0.08164890,0.05050858,-0.12218732,-0.05885744,0.02085009,0.06219857,-0.13828112,0.09429807,0.04235266,0.04139506,
  -0.03992978,0.02272741,-0.13406542,0.04281985,-0.20802642,-0.21440403,-0.04250676,-0.06087457,0.01262336,0.03795755,
  0.05286153,0.03482255,0.00696681,0.06879127,0.01375506,0.01709137,0.06222840,0.08838873,0.03102836,0.06740851,
  -0.06718747,0.00855159,0.12134660,-0.02875870,0.00271551,0.06514464,0.02342315,0.08916575,-0.03168620,-0.25696948,
  -0.14916508,0.04631166,-0.14850582,-0.06010265,0.07168993,0.02055766,0.09993216,-0.20767188,-0.24151960,-0.16384383,
  -0.04359696,-0.15956980,-0.05322536,-0.00364021,0.05295259,-0.12312829,-0.02037557,0.05599125,0.05313245,0.05983060,
  0.07968557,0.06184201,-0.05998091,-0.00465229,-0.01433900,0.08206321,0.15383616,0.06517220,0.07823867,0.11161193,
  0.12575182,0.01963874,0.02331666,-0.00615448,-0.05620845,0.15912662,0.08076128,0.03128103,0.18395859,0.14551675,
  0.02086796,0.21363518,0.16557877,0.01933111,0.13962434,-0.01309701,-0.01302575,0.25027335,0.19938900,0.08328432,
  0.20412128,0.10714488,-0.04149188,0.00519878,0.02963085,-0.06866369,-0.00982596,0.07161500,-0.04948749,0.00121797,
  0.02988938,0.03469814,0.08672006,0.07925500,-0.06503557,0.24176291,0.18713963,-0.03692877,0.14324598,0.10091783,
  -0.01263997,-0.03806545,0.09062829,-0.30619869,-0.07563988,0.10436294,-0.10765125,-0.03411876,0.08483554,0.04554399,
  0.13883692,0.02849149,-0.00251746,-0.00642023,0.03620921,0.02538846,0.06520606,-0.09075107,-0.00673481,0.16881344,
  0.07973210,-0.05691252,0.15076998,0.19944531,-0.06781857,0.02418022,0.11851297,-0.05304730,0.03738500,0.01282931,
  0.00193786,0.01797157,0.04465748,-0.03009357,-0.06462378,-0.08826651,-0.20471007,-0.07968919,-0.11941177,0.00228566,
  -0.01530076,-0.02713172,0.04358066,-0.01628728,-0.01846842,-0.14272062,-0.16416073,-0.00751871,-0.14504041,-0.04486036,
  -0.03067729,0.00420797,0.01189576,-0.00462875,-0.07971803,0.15601537,-0.02148559,-0.05864642,0.16452298,0.21734384,
  -0.11172843,0.18994640,0.23194784,-0.02486045,-0.02119226,0.01448619,-0.12759794,-0.03506126,0.13388695,0.02522170,
  -0.04400083,0.10751608,-0.03623217,-0.00219670,-0.02097985,-0.06232817,-0.09846404,-0.01656263,-0.10770214,-0.07168990,
  -0.19418743,-0.17273179,-0.08657996,-0.07619279,0.00334538,-0.04225600,-0.03738033,-0.04595299,0.04754312,-0.02976732,
  0.02354144,0.02692600,-0.05737165,-0.06254961,-0.04405711,0.12409747,-0.03053574,-0.03325917,-0.00815062,-0.11993415,
  -0.04101660,0.13423590,-0.00221922,0.06117296,0.14438865,0.01991085,-0.04755576,0.04179140,0.11914436,-0.02363327,
  0.09893622,0.09103465,-0.05021653,0.04523157,0.05241837,0.00688514,-0.04786085,0.06710678,-0.16867633,0.02961564,
  0.10524203,0.03728985,0.11117122,0.19510989,0.16601370,-0.08431423,-0.10860066,-0.03256183,-0.05419330,-0.10219899,
  0.02489951,-0.09722559,0.12992142,0.11342204,-0.05063222,-0.03467625,-0.05885421,0.09276515,-0.02345384,0.00699580,
  -0.06396173,0.06294969,0.09066650,-0.05454771,-0.04217409,-0.07688155,-0.18188561,-0.17010817,-0.05249455,-0.05130823,
  0.00678799,0.15695660,0.04575575,0.02010271,-0.10198471,-0.02814757,-0.14710562,0.06345601,0.04143873,-0.10665905,
  0.08553018,0.09739891,-0.07713194,-0.02926360,-0.06401496,0.00278021,-0.07178730,-0.05827140,-0.06134380,0.00752487,
  0.01483550,-0.07034446,-0.04297992,-0.18179597,-0.11314603,0.06026420,-0.07309028,-0.10184842,-0.03391438,0.12398859,
  -0.15168323,-0.07387829,-0.10056279,0.00601081,0.13607478,0.09922338,0.11445548,0.16843450,0.10610387,0.02290267,
  0.09678760,0.06507203,-0.07810925,0.07444166,-0.04636920,-0.03569407,0.13052461,0.09208483,-0.12843756,-0.00046162,
  0.03152216,0.03297191,-0.00837984,-0.06116383,0.11770190,0.10206612,-0.04780939,-0.00432983,-0.05225413,-0.04984486,
  -0.09265213,-0.09911585,-0.11945177,0.15627646,0.03579915,-0.04037787,0.04175630,-0.06337094,-0.08670006,-0.06588442,
  0.01402055,0.11181182,-0.10990912,-0.10203531,0.00234647,0.00857792,0.04580598,-0.01999017,0.08249730,0.00765500,
  0.04237033,0.04503720,0.02665019,0.10201678,-0.09986462,-0.02897339,0.08283938,-0.06958278,-0.03082784,-0.01510575,
  0.11876856,0.03241177,-0.03644143,-0.05797827,-0.03025336,-0.02271640,-0.04915570,0.04155774,-0.07906567,0.12276635,
  0.02158498,0.06110630,-0.07450784,0.03591610,0.02978449,-0.04735179,0.01955840,0.06929684,-0.04508375,-0.05004752,
  0.06379284,-0.01022780,-0.00267186,0.05609184,-0.00061398,0.08595021,0.02169342,0.03576066,-0.02328014,-0.09143553,
  0.01423831,-0.02853729,-0.01284765,0.05739107,-0.00967460,0.03226202,-0.05444691,-0.08604483,0.01653800,-0.08905939,
  0.04918809,-0.01461328,-0.00320476,-0.02228995,0.04741979,-0.06862753,0.03769218,-0.04030387,-0.05245544,-0.02752055,
  -0.03959354,-0.01258281,-0.05212900,-0.01993188,-0.03574362,-0.02092058,-0.05155392,-0.04256534,-0.05012375,0.12923315,
  -0.07455781,-0.03861367,0.08576149,0.03009130,0.04110745,0.00771515,-0.07956252,-0.00985668,0.02086413,0.06666065,
  -0.00110152,-0.00572432,-0.01385573,-0.03871780,-0.02529509,-0.04127529,0.05876146,0.04261766,-0.08116500,-0.03286437,
  0.08533110,-0.05078269,-0.00508660,0.07354191,0.08307000,0.09352629,0.16592570,-0.01991121,0.04978807,0.12119225,
  0.05227567,0.03823945,0.04190876,-0.09297086,0.10577843,0.16956073,-0.03687264,-0.04204836,0.02582081,0.07085834,
  -0.05968289,-0.00147565,-0.03439621,-0.00432384,0.07064409,-0.00389156,-0.01806443,0.08600680,-0.03885273,0.04701329,
  0.00779315,-0.01530915,-0.00979770,-0.07287299,-0.04151535,0.00511378,-0.06012625,-0.04813897,-0.04251984,-0.05381705,
  0.01495410,0.02820780,0.05421032,-0.08559951,0.07522512,0.00584754,-0.04181806,-0.00212634,0.14298692,0.08110718,
  0.00107340,0.02712681,0.06444410,0.01508065,-0.03489297,0.09556424,0.05319186,-0.02708107,0.04887118,-0.06219808,
  0.11029691,0.02045226,-0.00297777,0.05426090,0.00172706,0.07082374,-0.06361465,-0.05110982,0.01126167,0.01103267,
  -0.07027601,-0.03939099,-0.00112026,0.05034570,-0.06442211,-0.05409206,0.07659813,0.09659725,0.09420992,0.03283219,
  -0.04536338,0.01320973,0.00274181,-0.00677420,0.12536810,-0.03536231,0.10000250,0.14464411,-0.05535056,-0.00381799,
  0.01217578,0.04743919,0.05128432,0.08309308,-0.06707764,-0.04487418,-0.01099709,-0.06974348,0.01046450,-0.06527209,
  0.01108569,-0.05098758,-0.05393017,0.04553287,0.15259011,0.17431001,0.03850527,-0.12259830,0.04893468,-0.04436217,
  -0.06856910,0.02611276,0.03020986,0.12546942,0.22950877,0.03273473,0.08830377,-0.06020409,0.05446067,-0.01872862,
  -0.14910661,-0.00544878,-0.00075266,0.02771291,0.04659320,0.11142556,0.11587866,0.02006740,0.06121556,0.07774526,
  0.08202258,0.12215982,0.08130885,-0.02156727,-0.04287908,-0.05903058,-0.04431194,-0.08714623,-0.09143722,-0.04423223,
  0.03432753,0.05453830,-0.00349486,0.09663863,0.03757241,0.00980271,-0.04459620,0.00367550,-0.02086599,-0.03901375,
  0.06172797,-0.04396679,-0.14528748,-0.08772700,-0.02738025,-0.00691995,-0.16495869,0.07551700,0.12207816,0.27000862,
  -0.06037332,0.24957876,0.28806570,-0.01396117,0.07159810,0.08884846,0.01990495,0.09294783,0.10868339,0.12195605,
  -0.00669373,-0.11152661,0.02648651,-0.13111790,-0.04731595,0.00865913,0.05274745,0.09208308,0.08142592,0.04926262,
  -0.04034238,-0.03596331,-0.05355679,-0.00577554,0.02394400,0.07863127,0.17950913,-0.03520840,0.06556952,0.07894409,
  0.01118276,0.11291018,-0.04223198,-0.14701642,-0.02307694,-0.23042199,-0.13911515,0.05388085,-0.18802075,-0.17146517,
  -0.06404535,-0.05629769,-0.02530932,0.05200527,-0.02190937,-0.00478347,-0.07998319,-0.07614075,-0.05311837,-0.03364092,
  0.02808578,0.03848373,0.04042837,-0.00374911,0.05963152,0.09083290,-0.06781855,-0.02679214,-0.00509346,-0.16940504,
  -0.06749529,0.00062588,0.04834498,-0.13385858,-0.04162907,-0.11086839,-0.06567495,-0.06796785,-0.14668196,-0.06318905,
  -0.06707252,-0.05523913,-0.01830765,-0.06218041,-0.05011212,0.00147857,-0.08459574,-0.07361110,0.03407638,0.07432736,
  -0.04966066,-0.06639788,-0.01612141,-0.09172020,-0.05617969,-0.12795699,-0.05498690,-0.09837458,-0.15709931,-0.02232212,
  -0.08721580,-0.13782349,-0.05950628,-0.05158928,-0.04738983,-0.04731259,0.02065897,-0.07095429,-0.10769413,0.09452333,
  0.00665618,-0.05764389,-0.04900220,0.01571034,0.04115735,0.04890855,0.04643527,-0.08685558,0.02430423,0.03883880,
  -0.10837796,-0.07734715,-0.10341668,-0.12062814,0.08304764,0.12108126,0.05026736,0.00015146,-0.03385070,-0.03910353,
  -0.01707117,-0.03383000,0.00001489,0.11107454,0.00456172,-0.06495184,0.15155499,0.02064311,-0.04491632,-0.08164712,
  -0.08460223,-0.03608315,0.09901463,0.12238088,0.00442032,0.02513095,0.04239728,-0.03526461,-0.07912641,-0.11976869,
  0.04637212,-0.06560399,-0.04588233,-0.03347547,-0.00678770,0.09139489,0.00096380,-0.15596148,-0.09272432,0.03286374,
  -0.11435803,-0.15660404,-0.01176563,-0.06802371,-0.10795341,-0.04790146,-0.12638213,0.08867025,-0.08498567,0.01922425,
  0.04670392,-0.16087215,-0.04492960,-0.03771224,-0.11739060,0.02354165,-0.00151815,0.01770993,0.09962153,0.14901951,
  0.04951407,0.11858295,0.09331645,0.08823856,0.04680269,-0.06460416,0.05790894,0.00842525,0.12870640,0.16140781,
  0.05875121,0.13151258,0.18859293,-0.01321399,0.00824309,0.05099809,0.01543333,0.00812155,0.00700395,0.01342944,
  0.03422369,-0.10994795,-0.07238868,0.04688196,-0.02011396,0.00776367,-0.05936849,-0.03871833,-0.00833986,-0.01502030,
  0.07557645,-0.02914955,0.07349017,0.03554939,0.19497465,0.00748880,-0.09554885,0.26092032,0.23283076,-0.07156079,
  0.11261448,0.24967226,-0.02919082,0.05403994,0.20294090,-0.05517579,0.27050301,0.24251871,-0.01961840,0.13465776,
  0.12658297,-0.05454109,-0.04212426,0.03554182,-0.03441769,0.00130465,0.05124607,-0.00981219,-0.02343402,-0.08742614,
  -0.14996906,0.02915996,-0.05959608,-0.10666237,0.08272843,0.17863755,-0.05967614,-0.03359678,0.12649745,-0.05884623,
  0.02492980,0.08632583,-0.01678487,0.07182168,0.15216868,0.08093260,0.04874064,0.10996041,-0.06429397,-0.03513232,
  -0.04986598,-0.13739701,-0.08235750,0.00125697,-0.03904546,0.10928931,0.07331375,-0.00803395,0.01815889,0.08183364,
  -0.09356472,0.01449529,0.09982931,-0.04971146,0.06592164,0.13873345,0.06150038,-0.02577262,-0.10689778,-0.06010006,
  -0.09788093,-0.02867150,0.01223271,-0.01479689,-0.05581877,0.09170031,0.05077982,0.16531520,0.10646545,0.04374246,
  0.04021845,0.01518587,-0.07253151,-0.07185934,0.00255476,-0.13146278,0.28938884,-0.12391910,-0.18377818,0.28524438,
  -0.04261507,-0.10296348,0.23476812,-0.02998988,0.06858468,0.06772383,0.03105431,0.14441423,0.17050309,-0.07030715,
  0.01599662,-0.01830626,-0.06369995,0.05918522,-0.02674839,-0.02719477,0.01322976,0.07417006,-0.03586548,0.05909695,
  -0.06336532,-0.08593197,-0.00363614,0.04340664,0.04206471,-0.03857829,0.06814922,0.10468005,0.06109732,0.07456309,
  0.11407541,0.00406856,0.01108685,0.03331818,0.10100061,0.08511458,0.10753470,0.03706098,0.02065918,-0.09641910,
  -0.03329537,-0.02343837,-0.13168921,0.02666989,0.01266990,-0.08671032,0.02105746,-0.01101771,-0.07803196,0.20439391,
  0.23108248,0.20974107,0.04950216,0.19690330,0.18020029,-0.10236851,-0.07701570,-0.02389125,-0.04867755,0.14729390,
  -0.05656744,0.17257504,0.24584255,0.13208707,0.26542062,0.30578306,-0.05074198,-0.08710749,0.00895679,0.01731734,
  0.07837285,0.30792069,0.20117466,0.21716321,0.23822138,-0.06052555,0.05277890,-0.08739324,-0.05321484,0.06896470,
  0.04374062,0.04854492,0.01767690,-0.11328591,-0.08087827,-0.14848679,-0.04450763,-0.08648860,-0.04634489,0.14002950,
  0.22370578,0.11588758,0.19829912,0.00472360,0.11719804,-0.03197209,0.06328724,0.11108581,0.06104643,0.11149069,
  -0.02257676,0.02961330,-0.00815271,-0.04293516,-0.11251661,-0.05260876,-0.00216360,-0.13544576,-0.14011364,0.03514641,
  0.07286733,0.06984424,0.08644337,0.01925979,0.14619166,-0.02619551,-0.05417090,0.08079004,-0.08132812,-0.01991496,
  0.07562723,-0.11333609,-0.12603536,-0.04506478,0.06374335,-0.03720331,-0.11692847,0.04245271,-0.00256048,-0.03298066,
  0.01988203,0.04229654,-0.04279559,-0.00480207,0.00086606,0.07966338,-0.10712364,0.08409137,-0.02075400,-0.08814524,
  0.02773360,0.08025324,-0.08583941,0.00479537,0.21551387,-0.06120024,0.27661151,0.24745303,-0.08435488,0.00966902,
  -0.00547425,0.04439494,0.05605843,0.25500369,-0.01042979,0.02690850,-0.02024743,0.08963092,-0.04015149,-0.00477517,
  -0.00993080,-0.02557413,0.03288342,0.01706846,-0.09296628,-0.01629155,-0.04779606,-0.02410166,-0.00472883,-0.03575247,
  0.05912024,0.10973837,0.15374939,0.05534193,0.13804951,-0.06833929,-0.02085070,-0.00296412,0.00204530,0.15213865,
  0.09093480,-0.01446753,0.06049866,-0.11270808,-0.07051352,-0.04547648,-0.02573363,0.04693530,-0.00101119,-0.01929107,
  -0.07253463,-0.15032919,-0.10048898,0.14580801,-0.00835423,0.13348575,0.08458705,0.06058379,0.19758786,-0.13196144,
  -0.06283923,-0.07944646,-0.04447417,0.15151460,0.24728277,-0.03961954,0.07668930,0.28813916,0.12400900,-0.00458900,
  0.22995563,0.03339422,0.09597727,0.19279568,0.02451141,0.07882241,0.33460483,0.14254011,0.04924415,0.22522865,
  -0.11089105,-0.06687206,0.09550651,-0.11731053,-0.00491514,-0.03333225,-0.00820290,-0.04403246,0.01654823,-0.12932459,
  0.19856149,0.09762434,-0.07923608,0.03744634,0.45027894,-0.03006726,0.06687461,0.19708847,-0.15932246,-0.08523039,
  0.06192246,-0.10512991,-0.11877415,0.14033505,-0.10711066,-0.06190019,-0.10705867,-0.01608829,0.07508966,-0.01899058,
  0.04517873,0.06611781,0.00974787,0.12903136,0.10334199,-0.05125192,-0.20753908,-0.01366081,0.06947149,0.00194621,
  -0.02651104,0.08481532,-0.10428693,-0.10018949,0.02217828,-0.01178795,0.00957970,0.09613778,0.05257165,-0.03646343,
  0.05429567,0.00319258,0.07419339,-0.00848381,-0.11183077,-0.04668603,0.04183289,-0.15034434,-0.07918114,-0.19429246,
  -0.05025144,-0.18946186,-0.16485958,0.07242477,0.10667585,0.18585575,0.23784472,0.29482055,0.09291941,0.15838663,
  0.32265514,0.17607090,-0.07261973,0.03129719,0.14699775,-0.21049275,0.02854615,0.19449937,-0.02717305,0.05274173,
  0.14827845,-0.12269910,-0.00814685,0.04076243,-0.06193700,-0.11233711,0.09142401,-0.06302915,-0.05512856,0.05727528,
  -0.03503206,-0.00485463,0.00501137,0.06079986,-0.01604612,0.03608345,0.05487561,-0.04752823,-0.08732888,0.06355147,
  0.06781908,0.01411681,0.01062846,0.10940483,-0.04025295,-0.03470928,-0.01175961,-0.07050781,-0.11031201,-0.03094120,
  0.04837875,-0.04224226,0.03023651,-0.02308888,-0.02706416,0.02704980,0.08819234,-0.03324721,-0.09096394,0.14026222,
  -0.04828042,-0.07757463,0.00191232,-0.06760140,-0.04794681,-0.10494684,0.13950263,-0.05657583,-0.33012605,0.15480140,
  0.06502803,-0.25328854,0.02823658,0.09799016,-0.11531616,0.12137751,0.00588950,-0.13729079,0.04210317,0.13098060,
  -0.11397962,0.08589399,0.05362917,-0.10504165,-0.04425475,0.08908870,0.10394987,0.01161354,0.07246221,0.10173570,
  0.01096755,0.00269096,0.10683016,0.14605764,0.00627585,-0.18955176,0.03272760,0.12987503,-0.19061624,0.12598559,
  0.13924678,-0.00936748,-0.06197297,0.01736191,-0.06322036,-0.01977810,0.05660805,0.11801200,-0.03578805,0.01837428,
  0.09063797,-0.09028532,-0.06568047,0.00311365,-0.15320911,-0.14730681,-0.12861535,-0.15974182,-0.19738223,-0.19836468,
  0.04945294,0.03652966,-0.02411798,-0.02792195,0.05182074,0.08108459,-0.03131338,0.03939275,0.04425211,0.05587777,
  -0.00407129,-0.09655318,-0.12577979,-0.12542269,-0.21740775,-0.16804549,-0.15775220,-0.10330373,-0.08566134,0.13152891,
  0.10617560,-0.06652364,-0.14700983,0.03848918,-0.08990011,-0.01216730,0.17852533,0.05098672,0.10402082,0.08815876,
  -0.11974637,0.04186249,0.06743498,-0.23893224,-0.10679852,0.24220990,-0.02997372,0.04737031,0.00957467,0.09493127,
  0.15865514,0.04483807,0.02718343,0.05557003,0.01308862,0.08621585,-0.00866134,0.02400360,0.06618667,0.14129582,
  0.16764788,0.03922307,0.07708611,0.11444464,-0.13035393,-0.14969383,-0.32804644,-0.26104745,-0.40275112,-0.44380420,
  -0.12941299,-0.32948026,-0.24040911,0.01012084,-0.16551273,0.02671789,0.11038936,-0.19290967,0.06745260,0.12791869,
  0.13469142,0.02810087,0.01610143,0.08172737,0.05851320,0.05418392,0.10765779,0.12572484,0.02748152,-0.00581028,
  0.02532948,-0.07272170,0.02233101,0.09646913,0.01498943,0.03993127,0.10095174,-0.11598343,-0.16629161,0.04512376,
  -0.00035528,0.10789169,-0.06635322,0.21338572,0.18705544,0.01067786,0.10415079,0.26095513,-0.02261333,-0.02751154,
  0.02933666,0.05506962,0.14848563,0.23493424,-0.01058278,0.09783950,0.10785688,-0.05423460,-0.07918783,-0.01597569,
  0.01779519,0.02157567,-0.03602099,0.07798948,-0.07985726,-0.10248816,0.01412209,-0.13844606,-0.05479142,-0.04071184,
  0.01742242,0.22803640,0.00426020,0.02385855,0.18857367,0.05718728,0.06066372,0.05771257,-0.06360094,-0.03655595,
  0.08012405,0.14334013,-0.08087486,0.09124225,0.14348055,0.04868911,0.01210594,0.00312772,-0.17298155,-0.16912948,
  -0.01791701,-0.06832509,-0.09559713,-0.03567152,0.04672280,0.06339802,0.02951971,0.06797672,0.06888944,0.20205230,
  -0.03265486,0.11554208,0.19509757,-0.10791157,-0.06746826,-0.10770039,-0.06912726,-0.06841352,0.05834207,0.00061497,
  -0.05640673,0.07565718,-0.23059429,-0.32401985,0.07930543,-0.02901482,-0.21476279,-0.05016621,-0.04658911,-0.02820195,
  -0.07177500,-0.12395317,0.01760353,-0.09701827,-0.25932652,-0.11619400,-0.06281623,-0.10234063,-0.04042751,0.03491194,
  0.01912399,-0.00298560,-0.07712977,-0.02448647,0.14799072,0.18293244,-0.00775064,0.14799488,0.01346580,0.00867949,
  -0.01095311,-0.10369881,0.02090020,0.00910334,0.12673746,-0.02224607,0.09308369,-0.01277190,0.04262957,-0.03108867,
  -0.01069279,-0.08895355,-0.05032365,-0.01887343,-0.03214516,-0.04227744,0.09053686,-0.16882247,-0.06492706,-0.15657508,
  0.01464331,0.04207177,-0.01644703,0.04444609,0.02495159,-0.12570265,-0.07108174,-0.07826666,-0.08508409,-0.03100500,
  0.09066826,0.08461841,-0.02204281,0.02817572,0.06640798,0.00997936,0.07275321,0.18627007,0.07511366,0.17022938,
  0.20777705,-0.11698258,0.03217714,0.13315395,-0.09107210,-0.01656059,0.11296860,-0.03155938,0.07455155,0.06131598,
  0.04107112,0.18260778,0.13756032,-0.08228058,-0.07142168,0.02397322,-0.12409671,0.04090391,0.13054450,0.11359789,
  0.08808773,0.12502921,-0.04874546,-0.22433034,-0.03558565,0.22992598,-0.08290274,0.03203724,0.13782018,-0.09335022,
  -0.03156813,-0.02245714,-0.02796705,0.04813954,-0.08939199,-0.16633594,0.00565316,0.11397978,0.00440277,0.10765301,
  -0.09791296,-0.23929122,-0.08480329,0.20638871,-0.36501855,-0.23811111,0.07203854,-0.20701998,-0.15952092,0.02221842,
  -0.19374962,-0.13395430,0.22294085,0.01950352,-0.09949652,0.32635733,0.02191100,-0.10268085,-0.08704023,-0.31920230,
  -0.09101903,-0.09046073,-0.17223559,0.00625590,0.19904721,-0.08359632,0.05701178,-0.01142903,-0.16475900,-0.11969198,
  0.19677155,0.03281680,-0.16859116,0.27121651,0.03105864,-0.15785103,0.22164260,-0.11504900,-0.21158801,0.01099613,
  -0.15738159,-0.26222199,-0.00855100,-0.05145637,-0.07864029,0.12343694,-0.42276937,-0.19917938,0.24902016,-0.26589116,
  -0.13647863,0.34230745,0.04543421,-0.01956863,-0.07776301,-0.09884682,0.05384862,0.01481991,-0.28099111,0.03159133,
  0.11038588,-0.08949257,0.04424258,-0.07106362,-0.03987339,0.11891470,0.14414865,-0.09625925,0.05786344,0.07452174,
  -0.17746969,0.04943246,0.07721137,-0.26265022,-0.19281767,0.12361453,-0.08700691,-0.08137252,0.11853614,-0.01267718,
  -0.16486293,0.06741853,0.06110030,-0.00709446,-0.00402573,-0.01816295,-0.02660774,-0.02832853,0.02591842,0.06333291,
  -0.07456749,-0.15114275,0.01343920,0.09091742,-0.17779388,-0.08354635,0.05705196,-0.18544625,0.00080111,0.06011038,
  -0.40101638,-0.26941505,0.31097403,-0.23152608,-0.27564055,0.06847228,-0.09644247,-0.13077104,-0.26477200,-0.03936554,
  -0.21691878,-0.09809415,0.07796630,-0.10379216,0.07878716,0.26162347,-0.01066132,-0.26606309,-0.03596329,-0.11238462,
  -0.10597508,0.09148306,-0.06229349,0.14611222,0.31829938,0.14233331,0.08792131,-0.15046248,-0.20471366,-0.12743232,
  -0.04513655,0.00499242,-0.08262123,-0.00846811,0.07768612,-0.23203489,-0.11878379,-0.10016152,-0.22443609,-0.02652201,
  -0.05038396,0.07701343,0.24183810,0.02241775,-0.06435192,-0.14306864,-0.12946397,-0.17608716,-0.21678299,-0.18967614,
  0.07446307,0.10715652,0.06635869,0.12513417,-0.15654601,-0.13231680,0.03277076,-0.07980959,0.05630130,-0.04301336,
  0.01128823,0.23312484,-0.10373126,-0.05121336,-0.10583559,-0.02372636,0.03328031,-0.05462721,-0.04155741,0.04138393,
  0.01352840,0.05669221,-0.30759352,-0.07952468,0.00715589,-0.05312473,0.04335354,-0.06646875,-0.09494422,0.09160805,
  -0.10598423,-0.19549488,-0.18866552,-0.05265769,0.00825659,-0.01659726,-0.04325258,-0.02597415,0.13411029,0.00445196,
  0.25290710,0.17734103,-0.08579190,0.32417026,0.22458245,-0.06869168,0.57974672,0.39693791,-0.19858471,-0.22959185,
  -0.23313460,-0.10535405,-0.06495213,-0.09038902,-0.06886636,0.17114635,0.16502072,-0.18598996,-0.18351644,-0.26970956,
  -0.08328999,-0.04156519,-0.16845870,-0.01364607,0.07382284,0.03679089,0.09183976,-0.09401880,0.15860404,0.07203481,
  -0.03768380,0.23117355,-0.08274993,-0.08459815,0.28838226,-0.12789609,0.05161178,-0.03668305,0.03905374,0.07008380,
  0.01982079,-0.03190544,0.09139497,-0.01575864,-0.06149058,-0.12409897,-0.20557736,-0.01554183,-0.04475391,-0.06818935,
  -0.05421183,0.05021951,0.06402836,-0.03467174,-0.15288676,-0.11425831,-0.07854967,-0.02852125,0.00281953,0.01244027,
  -0.03156828,0.12684898,0.00323683,-0.08384229,-0.10684639,0.10170780,0.05571852,-0.24972075,0.02464913,0.11223633,
  -0.22380640,-0.04430880,0.03874414,-0.05109263,-0.00271737,0.00823065,-0.11995568,0.01699442,0.03296392,-0.14043778,
  0.02052062,0.08602332,0.03558860,0.08371049,0.03688512,0.12047382,-0.00076683,0.00983265,0.01042144,-0.03583035,
  -0.14248493,-0.15204765,0.08411530,0.08972540,-0.09969054,-0.01022257,-0.00897631,0.01953577,-0.01291541,0.00793051,
  -0.01249454,0.08225221,0.22083463,0.11740334,-0.02073331,0.09276442,0.12117530,-0.10249139,-0.16060026,-0.08583832,
  -0.15394624,-0.02168939,0.03459143,-0.10974951,-0.02453940,0.03161104,0.04182823,0.04125942,0.09521168,0.10334484,
  0.23702890,0.26596349,0.13082945,0.24278167,0.21770585,-0.12615436,-0.14388248,-0.10004081,-0.15272132,-0.05400605,
  0.06180756,-0.07222594,-0.04557925,0.05950465,-0.14573504,-0.05245778,0.24711829,0.07461795,-0.08260214,-0.01893570,
  -0.06283526,0.12387148,0.04666927,-0.11266592,-0.01923845,-0.01426550,-0.30057266,-0.09917774,0.00056083,-0.12016488,
  0.09268815,-0.03484856,0.01034913,0.03898142,0.07087725,0.00820975,0.17003118,-0.02036471,0.00125773,0.12002593,
  0.02993036,0.04457625,-0.05895333,-0.02021824,0.04049801,0.11802743,0.14003688,0.05714240,0.09897631,0.01320202,
  -0.05579729,-0.17898445,-0.05423629,-0.05044256,-0.00817983,0.04670697,-0.07369206,-0.15704435,0.00934312,-0.14961751,
  -0.21960589,-0.07921905,0.12067396,-0.13159963,-0.03214534,0.14903501,0.01064220,-0.00519800,0.08656550,0.08909795,
  0.03108093,0.08154643,0.03392611,0.05183942,-0.04791826,-0.01017484,-0.04372769,0.07317769,0.16361190,0.13173871,
  -0.02924420,0.13150641,0.18582347,0.05153475,0.01624537,0.13171536,-0.02707954,0.10887958,-0.05892741,0.10159232,
  0.19719841,0.06530446,0.00724915,0.00259766,-0.03698882,-0.04586968,0.11982477,0.06471477,0.12669905,0.14562257,
  -0.01472791,-0.01976653,0.05877489,-0.00837224,0.06051713,-0.14066170,0.03709719,0.12773520,0.06561708,0.01683808,
  0.01681842,-0.04998246,-0.16762158,-0.19877890,-0.01783124,-0.05555413,0.12879625,0.16628954,0.06244637,-0.10622068,
  -0.14928322,-0.09817891,-0.00705111,-0.01540480,0.08026926,0.09447544,0.22828393,0.13495986,0.11974155,0.05631835,
  -0.10577435,-0.12421861,-0.16993155,0.00296758,-0.04594985,-0.09570429,0.15608758,-0.03551310,0.12546977,0.15798905,
  0.02026664,0.22167051,0.17566635,0.05999917,0.11892335,0.03771948,0.12108015,0.12689371,-0.14754127,-0.08154741,
  -0.23661943,-0.03439954,-0.04438985,-0.13772848,0.06981008,-0.01869524,0.06067483,0.11009226,0.02384346,-0.02839770,
  0.04103457,0.02211650,0.10652114,0.03288849,0.03977581,0.07997224,-0.04818748,-0.27239472,-0.05465074,0.06914659,
  -0.28153536,0.08437092,0.26699230,-0.26909542,0.06387284,-0.01393845,0.00352333,0.08584566,0.10096651,0.25010440,
  0.25748166,0.05324496,0.04006193,-0.16006146,-0.19480811,0.01571405,0.01357209,0.00570193,0.03153067,0.09368954,
  0.04887682,0.02063267,-0.01646729,-0.15870710,0.01967401,-0.16804838,0.04905922,0.02222019,-0.04374421,0.20206046,
  0.00376359,0.06500255,0.21361791,-0.08531864,0.19409205,-0.00658355,0.01666600,0.18299098,0.07735774,-0.11930102,
  0.08608710,-0.08199175,-0.03385634,-0.10751968,-0.11329190,0.01349327,0.03790544,0.00017884,0.04189957,-0.10852517,
  -0.12212741,0.07969448,0.08085942,0.13024874,0.11596436,0.24668770,0.01787734,0.04158730,0.07103231,-0.12944323,
  0.00900702,-0.03858714,0.01693352,-0.10357429,-0.03578345,0.00506244,-0.14718680,-0.14712946,-0.12645568,0.04309988,
  -0.04273877,0.00424503,0.05950001,-0.05102776,0.00539547,-0.12466073,-0.19680887,-0.18993351,0.07337021,0.13039988,
  0.06061928,-0.07663041,0.01290095,0.00083904,-0.16227677,-0.19598854,-0.14857854,0.08746856,0.12889548,0.13509050,
  0.05895690,0.02877664,0.01799532,-0.09756481,-0.04828463,0.02477926,0.03191355,0.12040646,0.12721752,0.09598213,
  0.15501170,0.08394174,-0.11106642,-0.07623831,-0.06970239,-0.01001919,0.08047725,0.05506281,-0.00718641,-0.03102710,
  0.06041628,-0.07049668,-0.06533872,-0.15914246,0.17320116,0.25227991,0.12273123,0.10163918,-0.00487053,0.06986459,
  -0.08790846,-0.20867465,-0.23423243,-0.01336921,0.15218529,0.13825338,0.07803982,0.12396356,0.07156958,0.04926442,
  -0.01679773,-0.01208960,-0.00284923,-0.07604852,-0.04476136,0.07384448,-0.15218101,-0.06833674,0.31861144,0.07811356,
  0.03030072,0.07471460,0.03373281,0.04359814,0.12509404,-0.06106030,-0.02754736,0.04145128,-0.10106859,-0.18736027,
  0.11764090,0.01028771,0.06458356,-0.07605114,-0.08810690,-0.00067852,-0.21149689,-0.16544345,-0.30390203,0.12771828,
  0.14850894,0.12197272,0.01856021,0.07657598,0.04207571,-0.09331068,-0.25266063,-0.19360223,0.14825919,0.21696958,
  0.13347866,0.20377849,0.24335122,0.18757638,0.15109999,0.11955775,0.13973345,-0.03523786,-0.11105420,-0.06646140,
  -0.02885315,0.00009712,0.02611025,0.11638433,0.08087867,0.07502612,0.12621576,0.04902862,0.16136286,-0.07386160,
  -0.03668998,0.02185041,-0.18727067,-0.18697530,-0.17110115,-0.15459725,-0.08072879,0.06600326,-0.18986148,-0.19231878,
  -0.03069509,-0.18541251,-0.27494645,-0.11103957,-0.16883950,0.06974878,0.01481945,-0.03844180,0.06221758,0.02924009,
  -0.05129416,-0.01382207,0.08386403,-0.00039747,0.11386018,0.12169898,0.06196784,0.05177052,0.10299234,-0.08679769,
  -0.00490690,-0.01759332,-0.07033408,-0.02187009,-0.04898645,0.00264176,0.03496905,0.02935926,-0.01352659,-0.02480321,
  -0.10106861,0.00309419,0.05324455,0.05587914,0.08663391,0.05199027,0.04540358,-0.07447816,-0.06025311,0.11557510,
  -0.08048724,0.02918815,0.00221681,0.08456546,0.09829900,-0.06864387,0.08760642,-0.06790537,-0.09245783,-0.07123663,
  0.07266735,0.00292073,0.12537205,0.13741221,0.02963891,0.01825896,0.10846624,-0.02995241,0.26942948,0.16680215,
  0.03696407,0.18022585,0.13192795,0.04509794,-0.04927913,-0.08217000,-0.23365426,-0.02895729,0.05483388,0.04559775,
  0.05338108,0.11650531,0.05897355,0.09688742,0.01513656,0.00534900,-0.29885885,-0.03512784,-0.17855456,-0.11636108,
  0.03431038,-0.16429283,-0.19604447,-0.13391671,-0.20824364,-0.22962382,0.25088876,0.03224995,0.14102757,0.42222217,
  0.07971362,-0.02662954,0.29985973,-0.04412759,0.02636389,0.07868782,-0.03953369,0.08870575,0.08632669,0.01622094,
  0.00195972,-0.03403369,-0.00185574,-0.02604720,0.05608758,-0.05760716,0.12517151,0.07622014,-0.03098913,-0.03712932,
  -0.06293254,-0.06111028,-0.06299009,0.05776028,0.22060303,0.02161683,0.21141589,0.11949335,-0.04560608,0.14869007,
  -0.05671468,-0.19183648,-0.07191288,-0.01631276,-0.27695191,-0.14744583,0.01293776,-0.15520620,-0.07212587,-0.01401773,
  0.01184972,-0.04428993,-0.02570271,0.10155959,0.05196382,-0.00298045,-0.09400910,-0.01147821,-0.02250534,0.09982204,
  -0.00192062,0.03894043,0.12560037,0.12299071,-0.02232235,0.00187557,-0.10783359,-0.02449541,0.15773600,-0.03320838,
  -0.00103104,0.10991245,0.03152372,-0.09109435,0.09141361,0.06189305,0.00692170,0.11356325,0.14898165,-0.03486034,
  0.07973473,0.10066651,-0.09828138,0.03087967,-0.08147407,0.02108772,0.03056503,0.01501040,0.08277346,-0.00009858,
  -0.03631648,-0.07998278,-0.14496318,-0.11039939,-0.13751282,0.15159996,0.05302808,0.12439793,0.23126462,0.06312934,
  -0.08647567,-0.00633924,-0.07155927,-0.10086466,0.19856733,0.17716035,0.13350476,0.21230809,0.22853461,0.06746149,
  -0.02047602,0.07235306,0.00703051,-0.00413295,-0.03295388,0.10681488,-0.07737006,0.07804536,0.19695216,-0.02832642,
  0.01529024,-0.11082201,0.12745589,0.18621655,0.15276015,0.02537983,0.23433474,0.07080158,-0.09448001,-0.05799442,
  -0.08471724,0.02080304,-0.13672672,0.08819313,-0.04124925,0.06623024,0.15821926,-0.11303632,-0.07339992,-0.11761334,
  0.14168616,0.11097124,0.03616817,0.03201093,-0.00220512,0.11368010,-0.08388768,0.05009776,-0.07212924,-0.09860123,
  -0.00047712,0.04174888,-0.07518570,0.16102019,-0.01207627,-0.02629263,-0.03411058,-0.13974653,0.20683087,0.18550016,
  0.04816305,0.13919806,0.23690964,-0.06429967,-0.02996091,-0.03158723,-0.09869345,0.07481959,0.02442091,0.14398783,
  -0.00465058,0.04964405,-0.02236638,-0.14146039,-0.09045577,-0.17837249,0.15514831,0.00095418,0.12809086,0.09359157,
  0.16917725,0.16305703,-0.11900561,0.01292567,0.08979632,-0.12877068,0.09676186,0.01954490,0.10250491,-0.02273647,
  -0.05103417,0.00945600,0.03922913,-0.10536342,0.00652062,-0.00394761,0.08667969,0.07518803,-0.05592411,-0.12404608,
  -0.03893482,-0.12764959,-0.11032355,0.18961453,0.17611080,0.10053709,0.15114588,0.27978739,0.11573230,-0.13030010,
  -0.10096262,-0.06420919,-0.00611709,0.10486998,-0.03857669,0.05998780,0.18644162,0.07881702,0.13942268,0.13057330,
  0.08203714,-0.04807426,0.09005639,0.03743457,0.08645412,0.17880681,0.09344502,0.13664848,0.05613887,0.11516817,
  -0.06567100,-0.03794055,0.07925754,0.06076600,0.06331212,0.15149130,-0.07149445,-0.04350063,0.10582509,-0.02420557,
  0.03120963,-0.13948046,-0.01379855,0.04666394,-0.01295291,-0.03814681,0.10481364,0.12812570,0.04214285,-0.00706695,
  -0.00370906,-0.17907716,-0.00631781,0.06640131,-0.11561750,0.02955784,0.16412868,-0.03187293,0.05190340,0.01605200,
  -0.12046867,-0.05418980,-0.01779863,-0.09276351,-0.14170276,-0.11528807,0.03799343,0.07205427,0.09799088,0.03626910,
  0.11228470,0.25891048,-0.06191725,0.09688246,0.21467513,0.03732734,0.06180880,-0.07521301,-0.08205879,-0.08854894,
  -0.14664195,-0.01893958,-0.13634880,-0.06462842,-0.14353704,-0.20961495,0.07645085,0.05818393,-0.05898156,-0.00388679,
  -0.07264055,-0.10939287,-0.09620373,-0.20189483,0.10829709,0.04332425,-0.20780587,-0.07791708,-0.05210629,-0.09401467,
  -0.08383166,0.03147645,-0.04743484,0.07915462,-0.01789913,0.02386686,0.12653992,0.12852362,0.03576373,0.13217461,
  0.18557256,-0.03423996,0.11616039,-0.01696719,-0.06931412,0.06649618,-0.00996441,-0.01052134,0.04431007,0.13489120,
  0.03085140,0.10741203,0.11232544,-0.12614954,-0.10822891,-0.15952650,-0.00041927,-0.13808551,-0.16063935,-0.04448325,
  -0.06477018,0.06289729,-0.07239960,-0.02106095,-0.04725525,-0.01762852,0.05462210,-0.10108306,0.03098797,0.00826697,
  -0.03207747,-0.01153558,-0.02170031,0.02080165,0.03307470,-0.06937136,0.09500504,-0.15077990,0.00512186,0.16683681,
  -0.04432313,0.10413942,0.21865486,-0.06418467,0.04573249,0.13108110,-0.02903601,0.08936089,-0.04266059,0.19201708,
  0.16551954,-0.02092671,0.09745012,0.07779612,-0.06213048,0.00633739,0.12924151,-0.06128060,0.19919100,0.16254607,
  -0.11634874,0.06838004,0.07534179,-0.06727130,-0.02232376,-0.03610704,-0.04987009,0.07239141,0.04776764,0.01816146,
  -0.00352249,-0.07382458,-0.03822643,-0.00923376,0.01259501,-0.06374881,0.15074465,0.25361419,-0.06025888,0.08816966,
  0.11690132,-0.02386217,0.00974347,0.06749413,0.04243763,-0.02731857,0.18724650,0.22566505,-0.01632916,0.11269950,
  0.13545120,-0.08571257,-0.00589560,-0.08737950,-0.08202105,-0.03583544,0.07376240,-0.07951511,-0.07055313,-0.02851282,
  0.08538546,0.19055800,-0.00934858,0.05571637,0.20306817,0.15672264,-0.05437697,0.04484840,0.15708637,-0.00528312,
  -0.04691181,-0.07378674,-0.04619221,-0.09243926,0.09115788,0.01907160,-0.03650221,-0.02345250,-0.23486376,-0.10524607,
  0.13466707,0.06160110,-0.12244044,-0.04105661,-0.09164208,0.01423810,-0.00229873,-0.12887946,0.08709798,-0.10938577,
  -0.20971683,-0.00944207,-0.01896073,-0.18531477,0.02193017,-0.01150591,0.01348696,0.09221731,-0.00506150,0.16068514,
  0.21254975,0.04261171,0.02068534,0.12306339,-0.07639930,-0.07058366,-0.07563811,0.01025067,0.04396608,0.16151513,
  0.03581692,0.03692580,-0.06545813,-0.03882457,-0.01228025,-0.05749892,-0.00587641,0.07073765,0.08586553,0.10431968,
  0.02878872,-0.08895978,0.13950902,-0.04418169,0.01111966,-0.02007924,0.10725858,0.10670811,0.04909095,0.06838296,
  0.00478365,-0.09395957,-0.09693174,-0.05347543,0.01405765,0.03637857,0.09459556,-0.05877674,-0.09686524,-0.08998635,
  -0.04430249,0.04376119,0.16154754,0.12810303,0.11180859,0.13263746,0.20830406,-0.01545284,-0.01157119,-0.00964691,
  -0.06469711,0.00273330,-0.08264176,-0.00418065,0.07647519,-0.11176906,-0.13200229,-0.17181931,-0.14745447,-0.03569236,
  0.10584220,-0.01162725,-0.03568911,-0.00009954,-0.06210383,0.00472385,-0.06312548,-0.03938204,-0.07439615,-0.03146901,
  -0.02049325,-0.03261996,-0.02870070,-0.03561691,0.07378832,0.10601364,-0.03969653,-0.21137145,-0.04864819,0.00888025,
  0.02074907,0.04632610,-0.11342358,-0.17860563,-0.16206400,-0.09028126,-0.11168850,-0.00265979,0.05698048,0.19345474,
  0.13178438,-0.07152551,0.08709699,0.01973598,-0.08361270,-0.13015325,-0.08125356,0.02221618,0.04812359,0.13581197,
  0.12931247,0.01794461,0.17688747,-0.00433722,0.00424953,0.09446837,0.02878920,0.13434254,0.09260587,0.01842311,
  0.07385166,0.05372319,-0.09734076,-0.09075919,-0.10395788,0.07004215,0.01236548,0.08854112,0.17434342,-0.05124773,
  0.12719785,0.09406991,0.01806105,0.19269060,0.06632011,-0.09166548,0.12597427,-0.10694548,-0.09811955,-0.04081945,
  -0.02743088,-0.22419353,0.21258298,0.04850095,-0.09908269,0.43228558,0.15416870,-0.26625991,0.04618377,-0.04176537,
  -0.02206010,0.01676165,-0.04528390,0.22851695,0.05585216,0.01633936,0.06639809,-0.00167942,-0.14781825,-0.15504734,
  -0.04336680,-0.05838478,-0.00549693,0.13942951,-0.05923282,0.00628657,0.07334539,-0.01074330,-0.08352228,0.06750350,
  0.19946159,0.07209188,0.21080248,0.15461060,-0.09792600,0.01630731,0.03007610,0.17693271,0.32466918,0.17348406,
  -0.08216769,-0.02887763,-0.10761124,-0.16898684,-0.06166090,0.01985063,-0.18860646,-0.03901900,-0.05458471,-0.00857023,
  0.03760248,0.01201010,0.01553988,-0.03105710,0.01433217,0.04669040,-0.00820699,-0.04054867,0.07528830,0.12821658,
  -0.05547070,0.08672678,0.03259381,0.07991177,-0.00810278,-0.01565985,-0.32363755,-0.01527403,0.03994267,-0.09559680,
  -0.26757735,-0.16550523,-0.17937878,-0.02381764,-0.07818954,-0.14446723,-0.20429736,-0.20679013,-0.07939392,-0.33946955,
  -0.28414157,-0.18485150,-0.07055567,0.04011752,-0.07676835,0.08448175,-0.04374455,-0.08560758,0.00247198,0.00428692,
  -0.08567071,-0.04081409,-0.08761322,-0.15589103,0.18427959,0.05099029,-0.09255100,-0.13950814,-0.10626381,-0.15477332,
  0.10131548,0.11083303,-0.05534587,0.16282384,0.19303033,0.01048262,0.12310233,0.06345747,-0.04399432,-0.08693330,
  -0.05781684,0.01304515,0.08576898,0.15146270,0.22770864,0.10948513,0.17999351,0.02029978,0.14617600,0.09012867,
  0.00036329,0.15172814,0.20736738,-0.03134590,0.17377537,0.13062023,-0.06906585,-0.09981316,-0.01207850,0.02959620,
  0.07081899,0.20085436,0.17690773,-0.00835138,0.02131559,0.07153509,-0.05298522,0.03451583,-0.08582056,-0.00115599,
  -0.09413993,-0.09238992,-0.12694076,-0.04318229,-0.22955841,-0.18046428,0.04870686,-0.09273258,0.01259655,0.18086012,
  0.15017530,-0.28643829,-0.17126124,-0.17613548,0.01217385,0.04787837,-0.08895795,0.25129598,0.15071221,-0.01220438,
  0.02314294,0.00050469,-0.09300704,-0.02178096,0.00096948,-0.07009809,0.09071487,0.01096558,0.05251560,-0.08265804,
  -0.05174696,-0.10518187,-0.14742041,-0.07949331,0.16132699,0.07401901,0.14959222,0.21601804,-0.20198910,-0.03186532,
  -0.01327901,0.01734281,0.09924529,0.08068469,-0.28473184,-0.21333615,-0.07133217,-0.02620549,-0.07591080,0.07830824,
  -0.03864739,0.00480777,0.00594697,0.00976282,0.00183745,-0.04581226,-0.06461485,0.06599982,-0.06834384,0.09133592,
  0.04801903,0.09143244,0.15456592,0.02658819,0.05002084,0.14379896,0.15685233,0.09933073,-0.09095833,0.10471983,
  0.31001905,-0.11112575,-0.11955176,0.36880252,-0.05134944,0.04663809,0.16177811,-0.04014934,-0.04777491,0.33398363,
  -0.01880025,-0.04866099,0.28879595,-0.04989846,0.04250725,0.24028920,0.01360891,0.04348370,-0.04843327,-0.02549607,
  -0.08839397,0.02088656,-0.03644457,0.00186768,0.05811961,-0.03839695,0.17058250,0.31772685,-0.08747581,-0.07370146,
  0.20160121,-0.01372493,-0.09074478,0.12736768,0.07449257,0.09274874,0.19002081,0.02273148,-0.03663993,-0.08033376,
  -0.02196868,-0.04504717,-0.17274281,0.03718015,0.09457354,0.09263459,0.04500985,0.12639590,-0.05931027,-0.04575695,
  -0.00738671,0.00107339,0.21041125,0.10042138,0.16633017,0.06648199,-0.14170699,0.01780337,-0.14235690,-0.20842242,
  -0.17943096,0.04539911,0.04348921,0.08998375,0.10390718,0.03602787,-0.02751699,-0.00144205,-0.08087681,-0.10023564,
  -0.28173578,-0.25815758,-0.11038169,-0.19267593,-0.21200074,-0.22611044,-0.05116265,-0.19111542,-0.11412365,0.11623262,
  0.17017707,0.24852757,0.12780726,0.09481982,0.19033943,-0.00745520,-0.07108623,0.01210913,0.02443097,0.08359566,
  0.21080908,0.01763135,-0.20222935,0.10807660,-0.08321104,-0.10249200,-0.02931012,0.03917497,0.02712221,0.09875034,
  -0.00338742,-0.08928569,0.02242059,-0.01864165,-0.04332869,-0.01783011,0.00949592,0.29386312,0.26258087,0.12480949,
  0.04498454,0.00269703,0.00256927,-0.05491750,-0.17564924,-0.06573021,-0.02450474,0.01698816,-0.02684576,-0.02594147,
  0.12336627,0.03480176,-0.09457602,0.06480841,-0.04474316,-0.06022088,0.04939238,-0.02094423,-0.11880990,-0.04896304,
  0.00780893,0.05244612,0.07860514,-0.05414306,-0.05084233,-0.15708598,0.01798755,0.00038788,-0.06548930,0.01983305,
  -0.03071029,-0.11971978,-0.09428111,0.03476221,-0.08973046,0.18100402,0.12964763,0.13811105,0.08310810,0.09814266,
  0.13312335,-0.00010378,0.12830509,-0.07635905,0.16182715,0.14034991,0.17125840,0.02398456,0.11498874,0.09796490,
  0.09484831,-0.03095093,0.08523776,0.07027642,0.04345058,0.08132528,-0.05053498,-0.10425906,-0.16391400,-0.13905399,
  -0.05479727,-0.05718178,-0.03837694,0.12473042,0.05952789,0.04471963,0.04997672,0.05883517,0.00667412,0.01950454,
  0.09865139,0.14575207,0.06541256,0.15848088,-0.00871284,-0.10696023,-0.05812988,-0.07905708,-0.11461029,-0.06877432,
  -0.02517701,-0.07378489,0.05244622,0.05523881,0.10421966,0.03699751,0.16146480,0.20855917,0.16653650,0.02986532,
  -0.00274004,0.09672577,-0.05965121,-0.12529030,0.00887216,-0.09750017,-0.08637420,0.00447356,0.02158642,-0.08532112,
  0.01857342,0.12685406,0.06777744,0.13479166,-0.01891715,-0.09765772,0.03774315,-0.00644559,-0.00990280,0.06426927,
  0.17157860,0.07480653,0.12463827,-0.12576441,0.03199134,0.05877845,-0.10382754,0.18299942,0.18188931,0.06559263,
  0.30566379,0.08784677,-0.02853893,0.05598953,-0.00514240,0.07106387,0.04209475,0.12474220,-0.11016657,-0.05243606,
  -0.06774066,-0.02545008,-0.00960710,-0.04321967,0.11121252,-0.02679433,0.05402638,-0.08930704,-0.03412463,-0.16641486,
  -0.18028250,-0.15957281,0.13316089,0.04466614,0.07016653,0.13757351,0.09773015,0.11563344,0.25767842,-0.10900767,
  0.00631790,-0.05685399,0.03522620,0.14310376,-0.02120103,-0.03009149,0.01843730,0.00868312,-0.05383229,0.04722056,
  0.04202820,0.06364074,0.01291925,-0.02409451,-0.04332177,-0.04350731,-0.13408905,0.01318279,0.03418690,0.11555243,
  0.12688583,-0.00354137,0.08990615,-0.14107905,-0.13612925,-0.15216476,0.08414090,0.05186125,-0.11344496,0.10667740,
  0.01810998,0.01742936,-0.00206140,-0.03435379,0.15801071,0.07895708,-0.00800418,-0.07502434,0.03246829,-0.15900819,
  0.05673558,-0.01534553,-0.08201644,0.12273102,-0.04306630,0.00700026,-0.12937330,0.02789364,0.10992660,-0.07556477,
  0.10888571,0.09617505,-0.08393575,0.02261185,-0.10452905,-0.08095214,0.13862671,-0.20845707,-0.11179186,-0.04348776,
  -0.13404225,0.05087613,0.08367702,0.03993235,-0.04865440,0.31163853,0.07360137,-0.14016056,0.18576184,0.00572828,
  -0.29949009,-0.11640936,0.06407668,-0.08039774,-0.00343338,0.23329176,-0.04843558,0.07762140,0.14099994,-0.09884059,
  0.17458153,0.10344907,-0.23583649,0.08426397,0.02543108,-0.30586779,0.26108739,-0.00357107,-0.30273184,-0.12581673,
  -0.03012663,-0.04157253,-0.06573918,0.17643525,-0.04494923,0.00231443,0.06785212,-0.12347864,-0.08239935,-0.00140364,
  -0.11736281,-0.21212904,-0.01219769,-0.18749793,-0.01338708,-0.08962495,-0.26453355,0.01594592,0.16646147,-0.30442566,
  0.12169827,0.21830384,-0.14026885,0.02174570,0.13380463,-0.16378321,0.23104908,0.05019690,-0.13111389,0.19337012,
  0.00151834,-0.30960497,0.09527656,-0.09436279,-0.13719249,-0.00644534,0.06100266,-0.12249502,0.20600238,0.01812666,
  -0.20553792,0.12382416,-0.06290356,-0.12064163,-0.27370742,0.15679677,0.02158812,-0.06275916,0.17654873,0.02247106,
  -0.05842003,0.17872961,-0.09474170,0.16444613,0.01924696,0.08300612,0.00583447,-0.03115044,0.12808067,-0.04433319,
  -0.04604219,0.03553654,0.02074686,-0.03259242,-0.13691470,0.08222996,0.02944382,-0.10492201,0.03923353,0.00736834,
  -0.13344510,0.01762630,0.07888680,-0.14577375,0.14218970,0.15842904,-0.10674122,-0.05206197,-0.00922943,-0.26938236,
  -0.15064000,-0.07660622,0.07027428,0.04975427,-0.06079827,-0.19200365,0.16505380,0.04932070,-0.35241318,-0.14385955,
  -0.09963689,-0.03625545,0.05603413,-0.09738926,-0.17253900,0.02520631,-0.08054556,-0.19381611,-0.05318170,0.00065060,
  -0.02044605,0.01208445,0.09989565,0.06397951,0.00340558,0.11453690,0.13138430,-0.20034787,-0.18430455,-0.00913877,
  -0.10312746,-0.18567233,-0.20062202,0.09393919,-0.00252932,-0.14748290,-0.10079142,-0.00557982,0.03757732,0.00241606,
  -0.04683058,0.02943011,0.02743907,0.15517972,0.10836328,0.03639282,-0.03192589,-0.00456977,-0.02327485,-0.11833815,
  -0.01140578,-0.18121998,-0.04104902,-0.04762219,-0.01585352,0.04870041,-0.04321660,0.04383872,0.13544497,0.13049722,
  0.04589265,0.18548554,0.13631248,0.04876849,-0.07885332,-0.16068257,-0.00017161,-0.14090344,-0.14492978,-0.12825161,
  -0.09803785,-0.05211373,-0.07268401,0.07068003,0.30382961,-0.09389677,-0.04947740,0.15894979,0.07382340,0.02504097,
  0.01794715,0.12225610,0.05690676,0.01000035,-0.14384475,-0.09613714,0.03717038,-0.15214100,-0.07264402,0.08808473,
  -0.04121016,-0.04558262,-0.01311374,0.03877891,-0.01441656,0.02462665,0.13231874,0.16137712,-0.00269883,0.04589270,
  -0.11511164,0.04843432,0.04315140,0.06077179,-0.01018055,0.12030227,0.11191763,0.10526609,0.08257180,0.00892521,
  -0.04140809,-0.02838379,-0.14932083,-0.02209974,-0.11518782,-0.16112691,0.09993422,-0.09747591,-0.00009628,0.06191954,
  -0.10633355,-0.08152865,-0.06342725,0.02824880,0.02625871,-0.06904522,0.06797384,-0.02623658,0.02905227,0.07764643,
  0.03334726,-0.01440145,0.11602329,0.02887467,0.12326252,0.03734863,0.15100838,0.11985888,0.07369414,0.22437184,
  0.13337611,0.02496897,0.22255494,0.08375465,0.02597028,-0.01634773,-0.12086512,0.12374523,0.05071366,-0.05929753,
  0.06719738,0.07326166,0.07952962,-0.01260132,0.06975695,-0.02547834,0.12633543,0.05414250,-0.02577773,-0.01234767,
  -0.01153998,-0.03464838,-0.06604042,0.09122534,0.08899318,-0.03900110,0.01116484,0.15422022,0.06407893,-0.01836387,
  0.13040149,0.00144865,0.03632829,-0.05852446,0.07365791,0.01038457,-0.03019937,-0.02557881,0.03538881,0.07244430,
  -0.13286094,0.06083178,0.01692113,-0.08037779,-0.01548938,0.03762380,-0.10417330,-0.00999396,0.07952335,0.08756614,
  0.02310843,0.05421312,-0.07195892,-0.15829334,-0.03526679,-0.09332863,-0.24803878,-0.09755695,0.01019778,0.09995791,
  -0.02783003,0.01453708,0.06394280,0.19187081,-0.02956899,0.02884671,0.23973036,-0.01335416,-0.08286072,-0.08145277,
  0.00992412,-0.13383529,-0.01475967,-0.12100152,-0.22317255,-0.06668524,-0.19533224,-0.09948598,-0.03162660,-0.26386452,
  -0.11350767,-0.05337434,-0.12420648,0.00714754,0.09456709,-0.15613472,-0.03677390,-0.02479915,-0.33170259,-0.08855857,
  0.04951196,-0.35313764,-0.23718242,0.09561531,-0.05743174,0.00234381,0.06995739,-0.00722940,0.07981387,0.05107772,
  0.00838681,0.01986047,0.07995887,-0.03746004,0.02031538,-0.03848216,0.05019222,0.11127931,0.14945127,-0.05589832,
  -0.00898479,0.15103771,-0.15759803,-0.04947980,-0.24650234,-0.19493194,-0.34777528,-0.34369707,-0.28654087,-0.32725790,
  -0.23194447,0.02073276,-0.03368596,-0.07286081,0.06152860,-0.00038155,-0.02516942,0.14481346,0.19287957,-0.00076425,
  0.09599716,0.08578266,-0.00060496,0.04112742,0.10068343,0.05221928,0.03785274,0.08690353,0.05326143,-0.20180109,
  -0.04740766,0.20075551,-0.04837541,-0.01623920,0.24370669,-0.11012662,-0.08940504,0.06357139,-0.20199047,0.14046963,
  0.03635326,-0.06378169,0.30048916,0.26923671,0.04449950,0.20667627,0.22211367,-0.13671853,0.12195467,0.05122335,
  -0.08770195,0.21658675,0.20636144,0.08873938,0.14441966,0.17114338,0.01048250,-0.11024091,-0.01212633,0.02204324,
  -0.10512953,0.07720393,0.01282303,-0.16756701,-0.01451024,-0.12920973,0.14911936,0.01580713,-0.08529374,0.10067594,
  0.19208822,-0.04100521,0.10220332,0.13948779,0.09884217,0.09129117,0.03096190,0.02855476,-0.05304827,0.12085196,
  0.02559728,-0.12529057,0.05165965,0.05451443,-0.05821409,0.04969955,0.12229978,-0.06892038,0.06642233,0.14157349,
  0.07304738,0.08991131,-0.07616124,0.01108847,0.03442496,0.02997058,-0.03290439,0.12880553,-0.11701266,-0.11015247,
  0.02225669,0.05135288,-0.02318899,-0.05999059,0.01108294,-0.01180482,-0.02579029,0.04182461,-0.02973223,0.02821505,
  -0.00769003,-0.12650201,-0.05904214,-0.02550872,-0.02004333,-0.04076076,-0.05277590,-0.01893813,-0.02354158,-0.18576568,
  -0.14229456,0.14545310,-0.10454541,0.02576807,0.29613236,0.01195940,0.17788725,0.28017795,-0.03093951,0.07784756,
  0.10659561,-0.08796977,-0.02253824,0.24903677,-0.04513255,-0.09295731,0.11618202,-0.03812249,-0.06581804,-0.03472837,
  0.02286002,-0.05344163,-0.01429902,-0.06943178,-0.05561868,-0.05605088,-0.06929881,0.05536539,0.04111548,-0.03970331,
  0.02388187,0.01503725,-0.03804856,-0.04840656,0.03470904,-0.34557825,-0.07221881,-0.05210647,-0.06257154,0.07520545,
  0.06954838,-0.15777908,0.02155157,0.01362178,0.00549951,-0.08455607,-0.05527294,-0.07860332,-0.09430348,0.02925948,
  0.01082135,-0.09722779,-0.08144058,0.15256794,0.02388503,0.15344018,0.16707249,0.02640538,0.06918529,0.06241202,
  -0.04927681,-0.07799584,-0.05418170,-0.00939538,-0.14740671,0.05610336,-0.08213178,-0.08896297,-0.14040250,-0.21555474,
  -0.13272907,-0.03400315,-0.05978067,-0.19616219,-0.04264307,-0.06666196,-0.04120564,-0.02731792,-0.12391975,-0.20729974,
  0.02509513,-0.08552773,-0.03169377,-0.00123958,-0.04172350,-0.06045241,0.06151082,-0.06707060,0.02080244,0.03882056,
  0.01425734,-0.14964117,0.09495246,0.01555604,-0.07699239,-0.08659190,-0.14760230,-0.08722644,-0.03701772,-0.05806112,
  -0.06504416,0.08272011,0.10090835,-0.09468126,-0.04512775,-0.11511698,-0.09610351,-0.10133060,0.12974428,0.03979731,
  0.13103697,0.15561005,0.12387191,0.12423381,0.16736858,0.02643077,0.10356794,0.01175192,0.02691576,0.10049065,
  0.09133203,-0.01407011,0.05379953,-0.08460161,-0.19516663,0.05486635,0.03446122,0.13448372,0.07334898,0.11590353,
  0.19275008,0.07422163,0.07673606,0.05161493,-0.10775565,-0.17194732,-0.34031582,-0.23556414,-0.23450314,-0.18938167,
  -0.24374628,-0.11291080,-0.22532994,0.07761294,0.13444160,0.12696904,0.25608766,0.23430182,0.24953312,0.04279811,
  0.07324682,-0.01777171,-0.02268849,0.01890034,-0.12238169,0.17306304,0.08802345,-0.06336532,0.00890921,-0.15884560,
  -0.11928403,-0.05478796,-0.03140775,0.02790510,0.05819929,0.06928654,0.04979498,-0.06430167,0.00941824,0.05296617,
  -0.04036172,0.09457473,0.10320982,0.09904563,0.21315598,0.05303544,-0.06743640,-0.03099079,-0.13972597,0.08676716,
  -0.13102257,-0.03110698,-0.11676698,-0.08367544,-0.03068782,0.05169267,-0.02339559,0.06839106,-0.05647278,-0.01696515,
  0.03789990,0.06933720,0.03746402,0.04466320,0.05900571,-0.08899296,-0.01059469,-0.00049108,-0.09399346,-0.07497565,
  0.17471661,-0.04543533,-0.02735482,0.01585223,-0.06038583,-0.11317194,-0.11262123,0.06601894,0.25004277,-0.04780393,
  0.21326067,0.47678977,-0.00531620,0.30489150,0.50488645,-0.13160266,0.02387249,0.19481565,-0.11371886,0.15530458,
  0.43752140,0.13385527,0.31300080,0.44884300,0.06702018,-0.09199620,0.02784154,-0.05050877,-0.22168700,-0.11080766,
  0.08760417,0.03217127,-0.06193427,-0.11595762,-0.01951994,0.22033449,-0.18185759,0.00312581,0.40288061,-0.00404131,
  0.07933851,0.33581591,0.01442450,-0.02463417,0.07068642,-0.04420637,-0.22072771,0.05972002,0.00228852,-0.07960259,
  0.04136459,0.05465671,0.00869742,-0.03332124,0.12401372,-0.07658368,-0.03070717,0.08140744,0.00814063,0.08005978,
  0.02132378,-0.11168537,0.03198403,-0.12345479,-0.25394443,-0.05655083,0.01916770,-0.04964378,-0.02292134,0.05346229,
  -0.05481848,0.01089205,0.04379511,-0.10076170,-0.08865499,0.07271484,-0.03506592,0.08060079,0.06629591,0.02212892,
  0.09215130,0.22359852,0.01950058,0.07392708,0.09629215,0.05453144,0.05308066,-0.22274655,0.10737957,0.05067125,
  -0.05243791,0.22933482,0.16077487,-0.10159655,0.29248881,0.16238710,-0.08131070,-0.04070189,0.10390290,-0.19030821,
  -0.22619860,0.18254343,0.08613008,-0.03394124,0.15323715,0.02158010,-0.06198465,0.01919518,-0.11441942,-0.13300323,
  -0.05975761,0.08187342,-0.00941931,-0.02815034,0.03633792,0.03778472,0.06455046,0.05924229,0.03075534,0.15084492,
  0.03646335,0.09471954,0.03184592,-0.00227293,0.08224277,-0.02666770,-0.03170385,0.11108454,0.05340669,-0.08719063,
  -0.05094169,-0.11251763,-0.06108981,-0.07868143,0.05080790,-0.02838894,-0.04736553,-0.01448967,0.13328104,0.01375280,
  0.07555948,0.04797952,-0.13274418,-0.04644486,-0.01086802,-0.16407746,-0.00867988,0.21307582,0.08694910,0.07560658,
  -0.03904520,-0.09511681,-0.05575694,0.03077960,-0.10984579,-0.11231455,0.17562753,0.09294589,0.00919832,-0.07685336,
  -0.09745880,-0.03609851,-0.02811459,-0.01567233,-0.09007891,0.11645801,0.03812305,0.03657142,-0.01025496,-0.06588003,
  0.02076334,0.06567545,-0.01336358,0.01741686,0.08683826,0.12720734,0.17519766,-0.15650165,-0.17776451,-0.09237361,
  -0.05245109,-0.09731836,-0.18340495,0.14641351,0.03945202,-0.01848937,-0.12158103,-0.10380861,-0.07850746,0.07188504,
  -0.01454201,-0.06624205,0.01936173,0.14833708,0.20665427,-0.10552114,-0.14165388,-0.09859540,-0.13346606,-0.15278925,
  -0.11200834,-0.07691754,-0.08846280,0.01991365,0.03938029,0.03348549,-0.00946207,-0.03550551,0.01581442,0.03288404,
  -0.00837005,0.21345867,0.23722942,-0.03739816,-0.17035574,-0.06129374,-0.07544728,-0.18638426,-0.15661649,-0.10158538,
  -0.07890631,0.02210366,0.06449253,0.14176531,0.14660357,0.06688077,0.19111514,0.12428292,-0.09958985,-0.00108912,
  0.18654737,-0.10815481,-0.09111670,-0.03636242,-0.18564564,-0.13197964,0.00498931,-0.13118793,-0.12756291,0.16312598,
  -0.05543962,-0.07389180,-0.00699153,0.04317029,-0.04851118,-0.01694397,0.13454022,0.13272735,0.13258436,-0.06823283,
  -0.01927111,-0.07467806,-0.03634117,0.06454864,0.05779048,0.11534794,0.09607133,0.06548686,0.02920250,-0.05979156,
  -0.11722357,-0.04105472,-0.26722616,-0.30810148,-0.09385282,-0.07802025,0.05761167,0.01002714,-0.00867590,0.10613834,
  0.10834420,0.04309939,-0.03961859,0.11200360,0.02224504,-0.00732166,0.03039060,0.00038628,0.01002073,-0.03592392,
  0.09474964,0.07927658,0.11455616,0.02920737,0.09536358,-0.03949991,0.09003850,0.13686067,0.13129552,0.13988225,
  0.20572601,0.07298328,0.07899259,0.13826223,0.00568253,0.14827283,-0.11406790,0.03080614,0.10663006,-0.02543332,
  -0.03684255,0.09411188,0.05704704,-0.03491569,0.04417380,0.02344362,-0.00895182,0.06540850,0.03753409,-0.02942101,
  0.14508586,0.13558723,0.03130540,0.09555241,-0.11362983,0.08620169,0.12780242,-0.16073036,0.09804810,0.05954572,
  -0.10033263,-0.10251416,-0.06992521,-0.08249245,0.06836336,-0.03214310,0.02418065,-0.05033764,-0.08294521,0.03444719,
  -0.00395188,-0.02423112,-0.04142707,0.06911665,-0.03571447,-0.14068781,0.10554619,0.00428501,-0.14707515,0.00074021,
  0.14824812,-0.06000769,0.05266883,0.22705750,-0.10165205,0.05558396,0.11937321,-0.09080537,0.11165518,0.02960859,
  -0.19731762,0.08645583,-0.06843689,-0.28895584,0.15849507,-0.08510880,-0.27543285,0.00185808,0.04698386,0.01358116,
  -0.02112128,0.07489998,-0.06493126,-0.06296668,0.00552968,-0.04013413,-0.07831573,-0.14387120,-0.24486668,0.00940108,
  -0.15745620,-0.26130256,-0.01834212,-0.08799149,-0.05037889,0.03261111,0.43088782,0.04713940,0.00684362,0.62527770,
  0.19950692,-0.17171435,0.44661912,0.13595134,0.06634586,-0.00529634,-0.14466617,0.08115079,-0.10767464,-0.19341320,
  -0.02211945,-0.04797151,-0.05121481,0.08176117,-0.03070951,-0.03448217,0.06284647,0.02738114,-0.04664060,0.12152500,
  -0.05768792,0.01618285,-0.13380119,0.22799715,0.00078994,-0.00990706,0.19100627,0.01718042,-0.07764890,0.10691407,
  -0.01767277,-0.02052489,0.11552719,0.12423126,-0.09446823,0.00547791,0.14782076,-0.09892765,-0.06119065,0.07015799,
  0.04864246,-0.03634357,-0.13259804,0.05156752,0.04132652,-0.08883833,-0.00902870,0.05380554,-0.12087931,0.01115995,
  0.01634254,-0.16992223,0.10171032,0.02585617,-0.20197858,0.14346671,0.01707736,-0.10627184
};

#define 4_BIAS_DIM0 32
#define 4_BIAS_NDIMS 1

float 4_bias[32] = {
  -0.11167648,-0.09360576,0.01705038,-0.06151393,-0.10837550,0.05387187,0.00252410,0.00208297,0.08373287,-0.03521572,
  0.02395978,0.10260396,0.12482350,-0.01347738,-0.13087204,0.12553045,-0.02897236,-0.08768884,-0.04326672,-0.10523973,
  0.01860096,0.04349654,0.04364680,-0.08993260,0.00186415,0.02785884,0.13738695,-0.01952551,-0.06016679,0.04649830,
  0.10487726,0.04921375
};

#define 8_WEIGHT_DIM0 64
#define 8_WEIGHT_DIM1 32
#define 8_WEIGHT_DIM2 3
#define 8_WEIGHT_DIM3 3
#define 8_WEIGHT_NDIMS 4

float 8_weight[18432] = {
  -0.02094938,0.07223715,0.06547712,-0.01023740,-0.00318826,0.02289804,0.03010877,-0.02963604,-0.03764964,-0.00951889,
  -0.02604171,0.04648144,-0.11186142,-0.06308461,-0.02317224,-0.23851036,-0.14811341,-0.09510648,-0.02984736,-0.05430291,
  0.04177228,0.18934037,0.06742273,-0.10888014,-0.18342572,-0.22787111,-0.10218120,0.03280206,0.02466332,0.08405609,
  -0.02260364,0.01937647,0.08410920,-0.05120441,0.01630417,-0.03661263,0.02477403,0.08253416,-0.01716581,0.01811719,
  0.13971074,0.07565271,-0.11208164,-0.02470864,-0.18641606,0.00639427,0.04997607,0.08970480,-0.00945103,-0.00211038,
  0.11636198,-0.04774719,0.08452283,0.11331367,0.02081698,0.15946774,0.01592255,-0.07182086,0.01394473,-0.04110297,
  -0.06532042,-0.01154101,-0.09968551,0.07180721,0.10185530,0.12725334,-0.13646221,-0.00956753,-0.01938608,-0.22085330,
  -0.18513028,-0.19323565,-0.02252692,0.01867509,0.04674125,-0.12802851,-0.05333417,0.03415298,-0.23857990,-0.03402099,
  -0.01804230,-0.05950580,0.00121038,0.02406865,0.11835139,0.10346698,0.07880317,0.02719319,-0.03312027,0.07369153,
  0.00196841,0.09362385,0.06608066,0.00826371,-0.04564416,-0.00179515,0.00318058,-0.00788169,-0.03137402,0.17141378,
  -0.10917036,0.08648632,-0.18057008,-0.03716991,0.09563943,-0.02496395,-0.02843270,-0.14894003,-0.02209874,0.03502209,
  0.07542562,-0.02000253,0.03294810,0.05186208,-0.25656486,-0.01188827,0.01525362,0.00699662,0.09107745,-0.03362922,
  0.01636431,0.00280161,0.00682622,-0.02388024,0.04210075,-0.05049119,0.06537574,0.09742622,-0.04743744,-0.02848526,
  0.04038871,0.02014674,-0.01691216,-0.07873853,-0.15269582,0.11481025,0.10738646,0.05338588,0.04394474,0.13689303,
  0.07168717,0.06642640,0.08555263,0.01318767,-0.03347548,0.08786789,-0.04818761,0.00415494,0.15378885,-0.04558150,
  -0.03166620,0.01896475,-0.22745901,0.00882543,0.16191052,-0.08070440,-0.02411531,0.11441775,0.05370361,-0.01048375,
  -0.11144710,-0.17051312,-0.08800910,0.05635180,0.00258581,0.01934963,-0.02536540,0.00640539,-0.07617747,-0.07560084,
  -0.05627433,-0.05853852,0.03897370,-0.07098049,-0.07473556,0.00458293,-0.00534246,-0.03958621,-0.07383317,-0.08269000,
  -0.01050282,0.11066823,-0.10761261,0.02681355,0.16120815,-0.07640365,-0.06546693,-0.05222819,-0.07183940,0.03294768,
  0.04892252,-0.07784500,0.02816581,0.00663010,-0.02721465,0.07736522,-0.02938541,-0.11243927,0.00938180,-0.03378288,
  -0.04436670,-0.03038739,0.14380649,0.08481144,-0.13234676,-0.01836725,-0.07301887,0.09516867,0.10997326,0.04631542,
  0.04783278,0.08254295,-0.00224796,-0.07244600,-0.12724046,-0.21867774,0.06137227,0.16666122,-0.11524865,-0.06186906,
  0.15155238,-0.12915391,0.02537031,0.02579726,-0.25334457,-0.06960443,-0.06211319,-0.05739765,0.09034616,0.04305084,
  -0.01469564,0.03617907,-0.00743003,-0.07866190,-0.05998835,0.02554831,0.01755822,0.02755594,0.01644734,-0.00115233,
  0.00907245,-0.01647727,-0.00199225,0.13784675,0.00765284,0.07926761,-0.09137987,0.02463144,0.00548170,-0.06283093,
  -0.08898184,-0.14026283,-0.04318496,0.01663591,-0.05785517,-0.00276931,0.08168950,0.03421128,-0.07527728,-0.00922234,
  -0.14013815,0.12540573,0.02124956,0.06961372,0.04585767,-0.05200012,0.05533987,-0.22145841,-0.12453730,-0.04690853,
  -0.03055006,0.01582233,-0.05138642,-0.00433109,-0.06296563,-0.02769445,-0.05722388,-0.05045494,-0.02792996,0.01796547,
  0.10163368,-0.07921527,-0.01166300,0.08834957,0.03960781,-0.02372478,0.13125288,-0.03219793,0.00168007,-0.01251912,
  0.02099135,-0.00935349,-0.00285568,0.11174388,0.02303551,-0.15557472,0.00741929,0.07019506,-0.03833912,-0.03602100,
  0.10590570,0.01319016,-0.03502545,0.07203459,0.04989412,-0.02630962,-0.11949169,-0.09296329,-0.02430969,0.11154484,
  0.09210838,-0.12198661,0.08020765,0.05589749,0.04565132,-0.05341186,0.03501225,-0.03785001,0.05453753,-0.00023105,
  0.05863491,-0.00838635,0.01759063,0.05281374,-0.05386540,-0.08185459,-0.11378346,-0.06453032,-0.02141129,-0.09439573,
  0.08882618,0.08494150,0.07605498,-0.03055016,-0.00652733,-0.01207887,0.03326071,-0.00785401,0.01580558,0.07267734,
  -0.04122050,-0.08828612,-0.02645142,0.04709255,-0.07763359,-0.04316464,0.12429634,0.02826134,0.10493223,0.06899679,
  0.06892540,-0.04187394,-0.00563926,0.00595334,0.06207003,0.06197358,0.03019947,0.06012862,0.02413420,0.00404081,
  -0.06875940,-0.07033321,-0.10852689,0.10509183,0.04998112,-0.04670896,0.01883643,0.06458440,-0.05529085,0.07839420,
  0.08942557,-0.01056432,0.04303304,-0.05935679,0.00470142,0.03381220,-0.13212134,0.01791193,0.00744349,0.03163650,
  -0.07187177,0.00966767,0.09878055,0.04544600,0.08101977,0.01512733,0.04099485,0.16297573,0.10041960,0.11268304,
  0.14902620,0.06196236,0.13227972,-0.01038647,0.09199373,0.18824428,-0.06883279,0.17132059,-0.06687029,0.01791817,
  0.21278372,-0.11271369,0.12378703,0.20047852,-0.04669767,0.08963639,0.07352716,-0.00510165,-0.02651412,0.00221099,
  0.06105291,0.06875179,-0.08197381,-0.03310152,-0.08706120,-0.02203941,-0.08384237,-0.00928461,0.11072852,0.01561397,
  0.04296822,0.09822516,-0.03090049,-0.10961244,-0.02173661,-0.09914172,-0.11792712,-0.08146968,-0.12070899,-0.13281982,
  -0.00750433,-0.02427931,-0.00586830,-0.06523500,-0.17929591,-0.07917567,-0.02758849,-0.10378864,0.06059251,-0.00536067,
  0.00749458,-0.03669053,-0.08873051,-0.11653089,-0.21083653,0.00173757,-0.01153103,-0.00632798,-0.03582128,0.13965249,
  0.01396792,-0.06430934,-0.02662612,0.03158516,0.00637559,0.00700808,0.04670262,-0.03233221,0.01532906,0.08475228,
  0.04101047,-0.02801964,-0.07309837,0.05672592,0.05638663,0.02162611,0.04792779,0.10140349,-0.02148955,-0.10862472,
  -0.10541782,-0.14574610,0.00207643,-0.12022716,0.00266744,-0.00722389,-0.03894541,-0.02351801,-0.07140693,-0.07729678,
  -0.14054790,-0.12402934,-0.11140309,-0.03815895,-0.16128026,-0.17477755,-0.04776166,-0.10074058,-0.03529211,-0.00516500,
  -0.01297493,-0.06755599,0.05368518,0.08282375,-0.01784762,-0.05226335,-0.01709574,-0.01657762,0.03890333,0.12424017,
  0.01259184,0.00545270,0.05723277,0.05833536,-0.01976579,0.00093466,-0.07810315,-0.01688889,0.00486883,-0.09438304,
  0.14292806,0.09059396,-0.01156124,0.00741274,0.02450508,0.01952724,-0.01299460,-0.11443309,0.00811401,0.01757687,
  -0.03897519,0.01395594,0.06390043,-0.01795191,-0.02657886,0.03884221,-0.13317662,-0.07729793,0.03755331,-0.10179557,
  -0.01971236,0.05297206,-0.03961195,-0.03078111,0.08523920,0.09102146,0.00961409,0.04300892,0.06129097,0.06001506,
  0.00025044,-0.13254154,-0.14127184,-0.07636754,-0.05885124,-0.12855610,-0.06871302,-0.01831420,-0.04657597,0.01347861,
  -0.00824894,0.01548897,0.12276604,0.10398190,0.04108971,0.03104270,0.12343831,0.02336353,-0.00476894,-0.06092967,
  0.02586348,0.00677789,-0.07237107,0.01414630,-0.04668722,-0.14547829,0.02796759,-0.08309074,-0.06358396,-0.12846252,
  -0.02909234,-0.04339004,-0.14012283,0.04139882,0.02771400,-0.12917568,-0.05836215,-0.10070273,-0.05571325,-0.01991408,
  -0.05609606,-0.01443226,0.00487055,-0.12046690,0.00746327,-0.30182582,-0.26056126,-0.05966415,-0.26425290,-0.02211856,
  0.05671560,-0.07432851,0.22016673,0.17132661,-0.03052991,0.01456151,0.12603582,-0.08814059,0.17515691,0.01279485,
  0.04227539,0.14840531,-0.00574590,0.01812361,-0.04352206,0.01800104,-0.02418820,-0.04565414,0.04665039,-0.01150270,
  -0.04631864,0.10978483,-0.00593770,-0.12701859,-0.05378337,-0.04451008,-0.04587599,-0.06216327,-0.11482450,-0.11443924,
  0.08726088,0.07956996,0.06004738,0.04518340,-0.02889018,0.02881764,0.07155625,-0.04943841,0.07119116,0.00346433,
  -0.11419871,-0.12809351,-0.13344021,-0.16594474,-0.19061336,-0.03508249,-0.17766403,0.12956907,0.07831611,-0.19784325,
  -0.17181337,-0.07005487,-0.46356454,-0.03573376,0.09828780,-0.10903647,0.13647509,0.10300237,-0.08440896,-0.13862722,
  -0.02118907,-0.19490978,-0.04475712,0.03520825,-0.06364785,0.12599936,0.13323320,-0.17177346,-0.17148040,-0.12044663,
  0.00308251,-0.04977769,-0.02384404,-0.04311536,-0.00867686,-0.02679946,-0.19629362,-0.31090331,-0.04883079,-0.06273020,
  -0.10524944,-0.00080800,-0.01320713,0.15352757,-0.00722109,0.13387674,-0.03603978,-0.08775713,-0.22504860,0.12572443,
  -0.11694472,0.03996540,0.28967869,0.09010468,-0.16656277,-0.09347816,-0.02457041,-0.10173775,0.15774514,-0.03281526,
  -0.03278467,0.11128315,-0.18845621,-0.10078830,-0.12764002,-0.06581763,0.04152143,-0.09313320,-0.07167349,-0.00466337,
  -0.04712674,-0.04098158,-0.15112260,-0.11888099,-0.04535372,-0.14617306,-0.18025535,-0.02664294,-0.03472177,0.06614229,
  0.11254667,0.02713205,0.04985531,-0.03761812,0.02248644,0.10458740,0.17323916,-0.08476920,-0.17149775,-0.03925928,
  -0.00551726,-0.03774849,-0.06790953,0.00963946,0.08273342,-0.05379036,-0.06397036,0.02294545,-0.09480799,-0.05135185,
  -0.15911229,-0.13265179,-0.05937073,-0.17587623,0.02567437,0.01552602,-0.10524778,0.07035122,-0.27407116,-0.21579041,
  -0.10088938,-0.10403243,-0.04437391,0.05018753,0.07164597,0.18955584,0.13424085,-0.10151265,-0.21257517,-0.08877818,
  -0.09114825,-0.23486316,-0.02403249,-0.11400830,0.02594552,0.10629077,0.01731737,0.05686648,-0.06297699,0.03695562,
  0.04491931,-0.08571751,-0.00038898,0.11882333,0.03932822,-0.00163754,0.05673894,-0.12188405,0.07321086,0.12136371,
  -0.17260833,0.04345665,-0.00826462,0.01857356,-0.02035226,0.00733790,0.02675791,0.04673397,-0.00158400,0.02456618,
  0.01898328,0.06987863,0.01291699,-0.07515070,-0.10915531,-0.01665362,-0.17946915,-0.08140090,0.09440703,-0.12376032,
  0.00072202,0.09950453,0.01172460,-0.03481861,-0.23213094,-0.06781738,-0.05441880,-0.12891196,0.01061853,0.13605148,
  0.21748033,-0.00263196,-0.07446421,-0.09217186,0.05383099,-0.06573372,-0.04164998,0.02149851,0.06037369,0.04360614,
  -0.08527713,-0.02166807,-0.09611048,0.04700410,-0.04984176,-0.06769688,0.01927250,0.04209741,0.05488647,-0.23857580,
  -0.27131251,-0.10219689,-0.40473074,-0.08170026,0.04962952,-0.19886327,0.13518995,0.06487777,0.02032111,0.00474087,
  -0.15911205,0.03614272,0.01677345,-0.19198912,-0.03318465,-0.05537350,-0.15153985,-0.06118920,-0.21855292,-0.07635453,
  -0.16054159,0.01932521,0.15129855,0.05390187,0.29189226,0.22251956,-0.15865690,-0.10016336,-0.09939974,0.04845810,
  -0.08080924,0.07828279,0.14854372,0.11366265,0.10336958,0.00904060,0.00470876,-0.13185862,0.02863671,0.05210049,
  -0.05840528,-0.03406309,0.13019563,0.11079396,-0.04551077,0.06281513,0.06760995,0.08098179,0.10738020,-0.03142900,
  -0.00408218,-0.10638200,-0.01651265,0.02293056,-0.03585783,0.00417220,0.15625839,-0.00006041,0.01140322,0.08271011,
  -0.04554613,0.04785111,-0.01122473,0.00388368,-0.03056042,0.06747427,-0.02024438,-0.09438865,0.04339911,-0.07172263,
  -0.01770091,-0.05974096,0.00267692,-0.00418365,-0.01289636,0.07209215,0.03717399,0.00116993,0.02759346,-0.05001587,
  -0.09706966,-0.09911086,-0.01327220,0.02744823,0.10158475,-0.11781894,0.05077850,0.12756057,0.01098164,0.00393438,
  -0.01096070,-0.04728071,-0.00047282,-0.03384004,0.11685631,-0.01822743,0.03204122,0.02815335,-0.09144746,0.03129974,
  -0.03673754,-0.00082562,0.14599788,0.02736008,-0.00316369,-0.11466771,0.01502532,-0.03660186,0.04796611,0.02686653,
  0.11937439,0.06884073,0.16000438,0.01160290,-0.01514868,0.00158089,-0.06481212,-0.11074820,0.02678627,0.03806938,
  -0.10045646,0.05827055,-0.01947288,-0.04850323,0.06923199,0.01152114,0.00473978,0.01714993,0.02988672,-0.15698044,
  -0.06059616,0.00912957,-0.09761327,-0.01622583,0.04915488,-0.00331738,-0.03385902,0.06876402,0.01486628,0.01627673,
  0.11988376,-0.02528671,0.03130560,-0.09336270,0.12743200,0.04572500,0.08803056,0.11954377,0.23241876,0.00306934,
  0.02948738,-0.01328575,-0.20548898,0.05939948,-0.04314875,-0.08105657,0.11117059,0.09375867,-0.09384673,0.00088362,
  0.06416397,0.08173376,-0.00969716,-0.01646322,0.04794431,0.13730326,-0.06212589,0.03908434,-0.05857796,-0.06247706,
  -0.03001683,0.03255211,-0.05920890,0.09561875,0.22540458,-0.08037326,0.07268881,-0.01833390,-0.01364878,-0.12436878,
  -0.09655856,-0.09317727,-0.13028808,-0.05994807,-0.11026753,-0.08987080,0.00169986,-0.08023708,-0.07263201,-0.14596361,
  -0.09210818,-0.11332466,0.06430813,-0.06437482,0.09028332,0.09155597,0.02736315,-0.02910617,-0.05658356,-0.05785448,
  -0.03186164,0.14527068,-0.10052319,0.14249478,0.04900210,0.04003023,0.02453178,-0.00218038,-0.02544116,0.11734244,
  -0.06150024,-0.04225219,0.11146311,-0.02796874,0.01505767,0.02271036,0.02853017,-0.08203710,0.00639374,0.06421978,
  -0.03497269,0.07816215,-0.02986983,-0.00845589,-0.01805175,-0.10416620,-0.01796438,-0.11711584,0.04304228,-0.17144245,
  0.09486010,-0.01736051,0.04460662,-0.10983279,-0.09947209,-0.08587378,-0.15799254,0.00164024,-0.21414608,0.02362706,
  0.01060241,-0.22864437,-0.07555500,-0.09649031,-0.02966490,-0.02123007,0.04947113,0.03566907,0.04500756,0.11762796,
  0.02423148,-0.07955790,-0.00870826,-0.00288282,0.11219915,0.11744877,0.06399911,0.05258300,-0.06601445,-0.07267871,
  -0.09011646,0.00398870,-0.07885123,-0.07424420,0.09212577,-0.06602913,0.12937962,0.08828455,-0.05238396,0.04153652,
  0.05587096,0.06861738,0.05919261,-0.05967168,-0.07152364,0.06727257,-0.09214734,-0.02469413,-0.01165423,0.02681133,
  -0.04452831,0.07014811,-0.11664328,-0.07897377,0.07311811,-0.10668553,-0.02298480,-0.05047042,-0.02753826,0.01552494,
  0.08144373,0.03560996,0.07662314,0.04985010,0.04425107,0.01886032,-0.13691182,-0.14595301,-0.07799750,-0.18912116,
  -0.04812401,-0.13089570,-0.01507801,-0.04236101,-0.05655005,0.03338481,-0.04064040,0.02485435,0.14135048,-0.02205612,
  0.11932892,0.03821121,0.05411419,0.01337716,0.04253984,0.07399103,0.00085924,0.06208133,-0.09872371,-0.08905444,
  0.03695646,-0.16089815,-0.07991613,-0.15618409,-0.09463526,-0.06504965,-0.12671386,0.10961189,-0.00117248,0.09189904,
  0.06036863,-0.00732771,0.01016621,-0.03077358,0.04661668,0.03921840,-0.03755299,0.03622128,-0.16439593,-0.08571170,
  0.00483030,-0.05279664,-0.00464844,0.11808150,-0.09776901,0.01283453,0.04630647,-0.08151385,-0.03342982,0.03436871,
  -0.06696463,-0.07151795,-0.04009321,0.03002396,-0.02865764,-0.14060675,0.03325444,0.12224805,-0.13710673,-0.07737914,
  -0.02751143,-0.03480247,-0.00421891,0.03651303,-0.08842244,-0.00170520,0.00531588,-0.06917807,-0.05703752,0.12749426,
  -0.00504204,0.05822649,0.10754294,-0.01024867,0.04275272,0.04084069,-0.02905882,-0.03906815,-0.05002680,-0.11731393,
  0.10465550,0.02856435,-0.03399244,0.03991372,0.08578543,0.02147752,-0.07588235,0.10587052,0.07585061,-0.06202900,
  0.09234412,-0.00360396,-0.20735082,0.09018438,-0.05512604,-0.04773593,0.08556554,0.10808811,-0.05711876,0.07478251,
  0.03796467,-0.03747437,-0.06633265,0.03625650,0.02319385,0.02851765,0.00724090,-0.09384377,0.03156014,0.01496936,
  0.03490511,-0.03796782,0.08555032,0.01410920,0.04168954,0.11015186,-0.00463668,-0.00848024,0.01566096,-0.12397640,
  -0.02056604,-0.01259304,-0.07342932,0.10709189,-0.02171715,-0.02042321,-0.04199211,0.01209219,-0.09299704,-0.00257309,
  -0.01096330,0.04009442,-0.15273312,0.11632083,0.01452888,0.02991616,0.18397793,0.11390406,-0.23869699,0.01419203,
  0.00629567,0.07101767,-0.16564603,-0.01904917,0.17366308,-0.10633251,-0.17747018,0.22117431,-0.01323847,-0.03687761,
  0.04657472,-0.07664014,-0.00001127,-0.07677577,0.02679647,-0.30166867,-0.02601236,-0.08889602,-0.17419295,0.01346167,
  -0.03896514,-0.07757497,0.15843403,-0.03133259,-0.18218741,-0.07574238,-0.13742131,-0.07170620,-0.09836340,-0.09421235,
  0.05387291,0.05947458,0.06886070,0.16834331,0.11266060,-0.01815757,0.02445326,0.07218808,-0.04942401,0.02408975,
  0.13324384,-0.03533485,-0.02595569,0.05293795,-0.12395433,0.01080582,-0.00325042,0.01913003,-0.06603224,0.01571492,
  -0.03180168,-0.03508449,-0.00861116,-0.06999169,-0.04141557,0.02537828,0.11201540,-0.05777054,-0.00823896,0.10056577,
  -0.16249651,0.01624790,0.00548884,-0.05580425,0.07323863,-0.01711453,-0.06767397,-0.01844619,0.03883517,-0.07983121,
  0.03146055,-0.04500040,-0.16186750,-0.03981122,-0.07684918,-0.13694526,-0.00594675,-0.18485896,-0.08158656,0.07675722,
  -0.14135383,-0.06511467,-0.03644877,-0.09308187,-0.10409293,-0.06125509,-0.14830710,-0.14609203,-0.11042323,-0.18750983,
  0.06676863,0.05277072,-0.01909035,-0.08674581,0.02266972,-0.00759064,0.04330581,0.14964534,0.05484996,0.00926949,
  0.10064203,-0.05115058,-0.03825177,0.18684442,0.03035127,-0.11262824,-0.06117402,-0.08928151,-0.06882779,0.06308660,
  -0.03363613,-0.11052639,0.18296038,-0.03318207,-0.07181241,0.09806228,-0.06209768,-0.02916032,-0.05262840,-0.02193454,
  -0.05577396,-0.15609173,-0.01355711,-0.28466636,-0.01347556,-0.01089918,0.08993500,0.06711128,0.01499466,-0.02235340,
  -0.03136075,0.02391971,-0.18808736,-0.08150330,0.02241860,0.05496188,0.09612253,0.00770138,0.05720999,0.12470099,
  0.03552182,-0.06993514,-0.05532526,-0.01747075,0.09237913,-0.01128211,-0.01391660,0.04807221,-0.00567083,0.01520369,
  -0.02293729,-0.01691880,-0.08569784,-0.13228638,0.02754137,0.03811000,-0.18986706,0.06184689,-0.02932470,-0.02309665,
  0.01913575,0.07877427,0.01308882,-0.06441216,-0.08190849,0.05377045,-0.08060691,-0.01846058,-0.05375689,-0.02294249,
  0.00657029,0.03702464,0.02224703,-0.02967567,-0.00254230,0.18933079,-0.02363175,0.00071755,0.20180368,0.04137043,
  0.02345075,0.03897876,0.09288669,-0.05501791,0.06816029,0.14590812,-0.05674344,-0.11864983,-0.08815628,-0.04270779,
  0.11949605,-0.00220992,-0.07711545,0.07216052,-0.01826892,-0.23883033,-0.15115453,-0.07393744,-0.03729996,0.03298680,
  0.00223022,0.00271893,0.04396906,-0.22167665,-0.01091787,0.02395628,-0.02694895,0.03824101,0.05321931,-0.01183813,
  -0.05148363,0.07968258,0.06904214,-0.01271877,0.05550233,-0.02446189,0.02338549,0.05099349,-0.05649556,0.06185592,
  0.04369039,0.01888614,0.07886891,0.13020246,0.15964930,0.01182009,-0.02778924,-0.02725233,0.11811045,0.10912489,
  -0.02170263,0.03046089,0.12852526,0.10339849,0.02534573,0.03914057,0.00065533,0.07411774,0.03685480,0.10421961,
  -0.01004319,-0.03450871,-0.01612947,-0.04787788,0.09541527,0.04326262,0.11027823,0.02875520,0.00639678,-0.14873873,
  -0.11788943,-0.08182608,0.01836653,0.06672458,-0.09709603,-0.00864650,-0.04141765,-0.10344709,-0.02393314,-0.00377040,
  0.03559803,0.07349675,0.00932828,0.13425210,0.03960466,0.01500853,0.04153705,-0.17696828,-0.23401667,0.01985609,
  0.00134654,0.03228333,0.02987012,-0.05009294,0.00697161,0.04181458,-0.10857452,-0.11894765,-0.06523327,0.21078619,
  -0.00657498,-0.13458201,0.08590640,-0.05068596,-0.05720750,-0.17318553,-0.14377303,-0.14669122,0.02935396,-0.09605718,
  0.11864358,0.14985454,0.12779705,0.03203361,0.15616773,0.06816863,-0.11798584,0.03186715,0.03421097,0.04303043,
  -0.00048353,0.06352150,0.10822340,-0.07247473,-0.18655838,-0.02223231,0.00520426,0.01697093,-0.01125412,0.00161240,
  -0.05301194,0.08015979,-0.13493362,-0.08839682,-0.02306766,-0.17491919,-0.05191774,-0.28268319,0.06805482,0.05569771,
  0.00886770,0.12966724,0.14350538,0.11600599,-0.09091605,-0.00030008,0.00254273,0.00827838,0.02050922,0.05898824,
  0.00783857,0.02528115,-0.01820253,-0.07555269,0.03325567,0.01058718,-0.10039891,-0.01747345,0.09673107,-0.05484519,
  0.00351465,0.03133596,-0.03059180,0.07156216,0.06948687,-0.10548672,-0.07846868,-0.00663868,-0.11734139,-0.17648709,
  -0.04627103,-0.08237395,0.05011903,-0.00277426,-0.08633397,0.00903728,0.08389460,-0.11948529,-0.08677610,0.01202462,
  0.01182839,-0.07151064,-0.01144251,-0.08468935,-0.11284497,-0.03955073,-0.03082241,0.01756674,-0.01904711,-0.09227811,
  -0.15601200,-0.01722350,-0.05725694,-0.32414293,-0.08071882,-0.05907195,-0.13316128,0.01115670,-0.04783357,-0.01949534,
  -0.22166710,-0.01070277,0.03903161,-0.07505322,0.14990969,0.08055058,0.13933450,0.03177135,0.04093070,-0.04555023,
  0.11618990,0.09399127,0.05803339,-0.02067290,-0.11885171,0.00064690,0.09354379,0.03587817,-0.03572966,0.04211826,
  -0.07633540,-0.08151457,-0.05424312,-0.11221968,-0.16194138,0.05558017,0.06958108,0.08687317,-0.06737534,-0.07836826,
  0.07592048,-0.14361393,-0.09320401,-0.08926687,0.07193144,-0.05207949,0.03489363,0.07403591,-0.07559915,0.06870301,
  -0.08346199,-0.19548646,-0.02254685,0.02461623,0.05509893,-0.02361860,0.06199285,0.09042709,0.03791101,-0.11096382,
  -0.04115971,-0.07987560,-0.06983976,-0.13078308,-0.07998773,-0.05036736,-0.19172092,0.01739993,0.04635129,-0.02518173,
  0.08692797,0.06722696,0.10057638,-0.04850323,0.10220654,0.05052051,-0.15286478,-0.05076750,-0.03632632,0.03487468,
  0.01108965,0.03120854,0.06393595,-0.03287304,-0.04038237,0.03537022,-0.13531151,-0.19668807,-0.06975793,-0.00434581,
  -0.14921977,-0.10305727,0.05328691,-0.02756047,-0.07190540,0.05240651,0.08523736,-0.06155683,0.02027839,0.01831608,
  0.00884069,0.02146108,-0.03489724,0.13107248,-0.09092020,-0.06817190,-0.04724911,-0.12988470,0.19098997,0.01247157,
  -0.07987531,0.08975782,-0.09082203,-0.13976043,-0.03535614,-0.12087043,0.01807616,-0.05363436,-0.11778968,0.03700906,
  0.03860231,0.01454884,0.05368711,-0.02741970,-0.02930024,0.08624353,-0.08531397,-0.06902087,0.00904626,0.01121517,
  -0.03837426,0.04667975,0.00995887,0.03577181,-0.12149949,0.03329217,-0.05874277,-0.00271742,0.03344891,0.01492826,
  0.03243179,0.14226806,0.15946782,0.02449306,-0.04555188,-0.02658353,0.02486355,0.03767711,-0.01072273,0.12838189,
  0.09217578,0.07303859,0.00089953,0.00394688,0.03059048,-0.00375294,0.02166424,0.03971330,-0.11435930,-0.02204124,
  0.06092758,-0.04562848,0.09877136,0.03538550,-0.07226981,0.03762045,0.01623838,-0.13619395,-0.02103346,-0.04606757,
  -0.06316338,0.08318312,-0.09411248,-0.18720146,0.02573897,-0.10063836,-0.22309922,0.03785691,-0.04594120,0.13388830,
  0.03400040,0.14114222,0.01252033,-0.08595884,0.07674856,-0.07854249,-0.15786707,-0.05594332,-0.03980264,0.05160207,
  -0.01545821,-0.06523210,-0.00721278,0.08757891,-0.13448870,-0.11596723,-0.04674773,-0.15525919,0.08653779,-0.11537856,
  -0.23176715,-0.05502801,-0.16533835,-0.65751857,-0.08555892,-0.21080351,0.11014134,-0.10542142,-0.00730089,0.07155696,
  -0.17141959,-0.00267802,0.00521893,-0.04193681,-0.03479487,0.05132478,0.00129488,0.02864241,0.04286297,-0.00784446,
  0.04322742,0.00749245,-0.09531688,-0.01166669,-0.05709764,-0.06464818,-0.02287100,-0.03158737,-0.01698134,0.09578673,
  -0.05515106,-0.00458082,0.02362274,-0.16297717,-0.08829530,-0.09740742,-0.10967316,-0.02552342,0.04515467,0.11826931,
  0.10198845,0.09903587,-0.08754311,0.00127840,-0.11731879,-0.02844821,-0.01574544,-0.00102909,0.02386862,0.06045342,
  0.08847420,-0.06858864,-0.13133633,0.03778134,-0.00904993,-0.06267033,0.08813656,0.04931286,-0.01170932,0.13840652,
  0.01716478,0.14206491,0.07970711,-0.06590295,-0.01084162,0.02356755,-0.02745029,-0.09775621,-0.14568831,-0.12699945,
  0.04082444,0.00903480,-0.05846319,0.02121708,0.08044643,-0.07040583,-0.15601486,0.04526323,0.03278736,0.00250962,
  0.00338654,-0.06099089,-0.01043502,0.04266879,0.00019262,-0.01526594,0.11130296,0.02940463,-0.03390006,-0.05791827,
  -0.03412136,-0.08844600,-0.01691279,-0.05720664,-0.01450874,0.06827057,-0.02319933,0.10726312,-0.16116968,-0.13092537,
  0.07951704,-0.10960037,0.00547426,0.11192151,0.11812226,-0.05152721,0.04768820,0.03329433,-0.03535623,0.06186066,
  0.04668011,-0.03724085,0.05786753,0.13542663,0.13591424,-0.06639504,-0.01939953,-0.01511203,-0.07347253,0.05021170,
  -0.09193369,-0.01299417,0.02833008,0.04115803,0.02818614,0.10058108,0.01618769,-0.06438119,0.03752455,-0.08134142,
  -0.11164586,-0.06650314,0.08694961,0.07365372,0.00846943,0.06672333,-0.01746392,0.01053637,-0.01484381,-0.09242041,
  -0.10671739,-0.08729608,0.06828122,-0.01243575,-0.04462309,0.06991115,0.00007657,-0.10707705,-0.00910840,-0.10861647,
  -0.02634791,-0.05983138,-0.04387118,-0.05049188,-0.04306367,-0.05217180,0.04417413,0.03807591,0.08468327,-0.11326259,
  0.08178192,0.01479319,-0.22240929,0.04147006,-0.04603142,-0.38106528,0.04367427,0.00686080,0.07448487,-0.03364687,
  0.11125402,-0.01217540,-0.07653715,0.04645383,-0.04245729,-0.20291288,-0.09970132,0.02867521,0.03817121,-0.07817506,
  -0.12483031,-0.01450837,-0.01909121,-0.05788217,0.08015677,0.00728641,0.00624989,-0.00618486,0.09010112,0.00411932,
  0.00652712,0.06648558,0.02381812,-0.01678032,-0.03300868,0.00092662,0.13415134,-0.00731731,0.01597770,0.06876576,
  -0.02370592,-0.13119859,-0.07638203,-0.03729020,-0.11836243,-0.01473429,-0.09942212,-0.07840653,-0.02861979,0.02783586,
  -0.03826225,0.01959891,-0.05579223,0.01919705,-0.00694966,-0.07241642,-0.00696475,0.06921610,0.06473724,-0.07692933,
  0.03082921,0.02226194,-0.05975701,0.05978965,0.02238853,-0.02921005,0.09406285,0.03783922,0.02740059,0.00056687,
  0.09778502,-0.05638237,-0.02635035,-0.07349090,0.07856345,0.07259426,0.10422011,0.06987146,0.01896217,0.05943633,
  -0.03754488,-0.04302390,0.08431543,-0.03094659,0.00947901,0.10235222,0.04488496,-0.06923452,0.00665875,-0.02833608,
  0.03024839,0.07414414,0.03933315,0.04060981,0.04686019,-0.16984969,-0.08755722,-0.03181591,-0.14838898,0.05286328,
  -0.03063879,-0.05143902,-0.02521962,-0.05547715,0.00122047,-0.05853032,-0.04822830,0.08013382,0.07423075,0.02357765,
  0.02652424,0.03106456,0.02569255,-0.07599495,-0.16573179,-0.04291994,-0.05027757,0.01716146,0.04943978,-0.00129293,
  -0.00999412,0.03331142,-0.02430639,-0.13195783,0.01285513,-0.16555926,0.04419831,-0.07335738,0.13484922,-0.14103630,
  -0.13322067,-0.22663189,-0.04227687,-0.39010355,-0.07903085,-0.05826372,0.00078509,0.30773288,-0.00712177,0.03485762,
  0.19742602,-0.20807423,0.15972237,0.07783768,0.02246220,-0.01696459,-0.02288066,-0.03957245,0.08614805,0.00475643,
  -0.02529653,0.03039790,-0.02485710,0.01077775,0.00593600,-0.00963448,0.00574898,0.09662575,-0.02741650,-0.10411964,
  0.02747144,-0.10897483,-0.01948914,-0.13370642,0.08329416,0.08188267,0.09794878,0.20380193,0.21577710,0.21444817,
  -0.13941644,-0.02377141,-0.01324308,-0.05171628,0.00286051,-0.05257849,-0.03404505,-0.08850453,-0.08554298,-0.07822437,
  -0.06119094,0.04313542,-0.06175639,0.02497066,0.12350313,0.00033282,-0.04193545,0.10371725,0.01027330,0.06591268,
  0.01821177,0.01805026,0.03821982,-0.00086371,-0.06581407,-0.06064510,-0.01631164,-0.05060956,0.00686383,0.02825222,
  -0.08598873,0.03204053,0.02454569,-0.05615604,-0.08817152,-0.00898110,-0.06176155,0.01032997,0.03707210,-0.08286297,
  -0.07640181,0.01900616,0.03526279,-0.10883073,-0.05494957,-0.15465632,-0.09876927,-0.07251420,-0.22369441,-0.18107334,
  -0.09402379,-0.11039086,-0.09090786,0.00014779,-0.15873291,0.03653502,-0.10637828,-0.09020761,0.03652214,-0.05369039,
  0.11736166,0.09789534,0.05525987,0.02079915,0.01966663,0.04375893,0.05740766,0.08395773,0.10092600,-0.05580587,
  -0.04347719,0.04850524,-0.12767994,0.08787679,-0.05466344,-0.01253726,-0.06043578,-0.05867802,0.00157029,-0.04475217,
  -0.12704767,0.02765221,0.06291016,0.05530420,0.04463073,-0.07986902,0.07074020,-0.08247254,-0.05050610,0.00969499,
  0.07902477,0.00469886,0.04472271,-0.01338324,-0.02714125,0.06419872,-0.08749099,-0.10613263,-0.07863574,-0.08717602,
  0.08064829,0.03002099,0.00974028,0.08146729,-0.03504754,-0.08501855,-0.14055936,-0.09301700,-0.01212015,0.04377973,
  0.00560888,-0.07814444,-0.10728338,0.01283435,0.02562677,-0.07194698,0.04495788,-0.00100053,0.17811188,0.02014455,
  0.02724352,0.06638516,-0.07160360,-0.13698827,-0.07405234,-0.06315954,0.06875338,0.02552075,0.07460486,-0.05736961,
  -0.02476979,0.04274007,-0.08214080,-0.11226074,-0.01899956,-0.07326139,-0.04498350,-0.02126084,-0.05226821,-0.09374527,
  -0.09382316,0.09041359,-0.13620228,-0.12451693,0.05176800,-0.15725127,-0.13959901,-0.02089533,-0.03612774,-0.11620773,
  0.04106503,-0.09167654,0.12283037,-0.03969085,-0.14216150,0.13227464,0.10416348,-0.00615670,-0.03711494,-0.00803161,
  0.04670851,0.02475243,-0.08065542,-0.02514248,-0.03486045,0.02796769,-0.13038343,0.06288847,-0.04790590,-0.06910641,
  0.02779116,0.02809944,0.00529525,0.00342392,-0.06959472,-0.04183590,0.03987682,0.05615613,-0.03877762,0.00740049,
  -0.04873177,-0.02448726,0.07776775,0.11109789,-0.05478055,-0.08017442,-0.06198201,0.01562634,-0.06923359,0.01427063,
  -0.04282830,-0.06780500,0.00945298,0.02388541,-0.11536950,-0.05453493,-0.02189372,-0.05440941,0.13138330,-0.15381540,
  -0.07663446,0.15166818,-0.17580584,-0.12679231,0.02788881,-0.02610734,0.15036008,0.09663141,-0.06871431,0.08272970,
  0.00791952,-0.03876811,-0.00621726,-0.04575873,0.07484020,0.04200602,-0.07851210,0.05183867,0.11167654,-0.03504863,
  0.09509871,0.07086614,-0.09305793,0.20422177,0.05274022,-0.12444845,-0.14735910,-0.09054149,-0.06581253,-0.08741349,
  -0.04728101,-0.05629998,0.00857960,0.11240310,0.00841236,-0.11942226,0.03801674,0.14462800,-0.03286424,-0.09807651,
  0.06858381,0.01969433,0.10561851,0.11934666,0.12516509,-0.24629280,0.02311526,0.24477375,-0.15271801,0.08832278,
  0.18329401,-0.18626443,-0.03562550,0.05614860,-0.15404154,0.12427101,-0.09008808,-0.02274857,0.16080958,0.00712087,
  -0.03662607,0.02520022,-0.20764506,-0.13743211,0.05494812,-0.12150903,-0.08489396,0.06896745,0.00852221,0.04193144,
  0.06974073,-0.03896006,-0.04781274,0.19313334,-0.07757076,-0.12380689,0.02395999,-0.10466026,0.05813826,-0.00097368,
  -0.03526690,0.06005622,-0.00576541,-0.00061722,0.02944245,-0.18764900,-0.14281814,0.01830057,0.06235711,-0.15062000,
  -0.07050830,0.11264694,-0.01079421,-0.09983489,0.07400887,-0.02727277,-0.01202562,-0.03742182,-0.06599268,0.02751537,
  0.12600410,-0.06674448,-0.00042266,-0.01681472,-0.14995225,0.04361821,-0.10846616,-0.01253997,-0.00780879,0.03392183,
  -0.00340739,-0.01438615,0.02701594,-0.04936220,0.00004851,-0.01481803,-0.12932952,-0.05668012,0.07820365,-0.13857429,
  -0.11431757,0.12816434,-0.03329295,0.04787108,0.04370588,-0.07860401,-0.12792715,0.07527802,-0.00379282,0.03434034,
  0.05786242,-0.04613665,0.06782008,0.05047045,-0.04714396,-0.25667059,0.08918887,-0.03909180,-0.01415034,0.11445341,
  0.06187759,0.05151792,-0.00965067,0.05623435,0.03346305,0.04505065,-0.06809577,-0.10538594,-0.09289586,0.03531163,
  -0.20827059,0.09720920,-0.08323412,0.01340442,0.13216674,-0.13318843,-0.09985792,-0.02063283,0.00524304,0.07507967,
  0.33521789,-0.07758205,-0.22860906,0.34484476,-0.02699723,-0.09430148,0.19575563,0.01503988,-0.06241793,-0.09718087,
  -0.14811732,-0.10083539,-0.00257836,-0.04934971,0.05083353,0.01688671,-0.00819766,0.08812316,-0.08933636,-0.04783705,
  -0.07380185,0.05351180,-0.06648736,-0.00572550,0.05153221,0.04669096,0.08817262,0.02663178,-0.00869123,-0.00173181,
  0.06367935,-0.01034719,-0.08492410,-0.01391714,0.08736648,-0.04921637,-0.04261845,-0.05825955,-0.05986375,0.09868271,
  0.01822397,0.01260304,0.04094570,0.06230938,0.05893542,0.01150304,-0.01943061,0.08549362,0.01869396,0.10720349,
  0.02229171,-0.15460899,0.12665777,-0.06456234,-0.09846897,-0.21736816,-0.16358465,0.03415758,-0.06570710,0.02999226,
  -0.00323813,-0.07305840,0.12263461,0.17501889,0.00414948,-0.13221122,0.21112327,0.05896344,-0.12904613,0.06947858,
  0.08589625,-0.07384428,0.06819619,-0.08727010,0.01326101,0.03929861,-0.01625643,-0.01946430,-0.00578018,0.07514659,
  -0.06852087,-0.10617473,-0.12337189,0.05731105,0.14235900,0.03661482,-0.03864126,0.17514654,0.07757208,-0.07699439,
  -0.08236825,-0.06598368,0.05785609,-0.05520410,0.00695707,0.10729794,-0.06581353,-0.01887513,0.11074352,0.03483085,
  -0.00332177,-0.00812975,0.01071421,0.03927162,0.04698193,0.01381062,-0.09157128,0.04788055,-0.00756048,-0.04444321,
  -0.00129419,-0.02879024,-0.13288115,-0.00687049,0.02845682,-0.02959556,-0.01255204,-0.07853287,-0.08803722,-0.09914108,
  -0.07358611,-0.03249382,-0.03315228,-0.06405299,-0.10321137,-0.06506968,0.04137145,-0.10839379,-0.03179982,0.19210646,
  -0.05578712,-0.04497182,0.10244590,0.09725157,0.03161689,0.04215810,-0.08427492,0.02964082,0.16110712,0.00298939,
  -0.08661690,0.16708322,0.04012885,0.03188799,-0.01456525,-0.11971179,-0.04830677,0.03369942,-0.11950392,-0.02431685,
  0.16676499,-0.02882121,-0.04443768,0.05686225,-0.05283482,0.01614199,0.04717228,0.01723485,-0.06503109,0.07346256,
  0.06643650,-0.04695521,-0.02227175,-0.09730968,0.01856838,0.08615514,0.02809819,-0.03002826,0.08727964,0.13242322,
  -0.06171072,-0.00374327,0.07514746,-0.01736366,-0.00381599,0.05636399,-0.11089254,0.05881123,-0.21110849,0.07390872,
  0.05931432,-0.17937772,-0.09552140,0.08039433,0.01384202,-0.01043739,-0.02590674,0.05671651,0.11164307,0.01128342,
  -0.05340000,-0.00370708,-0.04932291,0.00277780,-0.04670011,-0.04354461,0.05256144,0.04990624,0.00833127,0.02154677,
  0.05369505,0.07405477,-0.01659855,-0.00822793,0.02918014,0.08195458,0.09847718,0.04160666,0.07723900,-0.04237201,
  0.18630388,0.06879867,0.08501972,0.05514612,-0.05614895,0.03843356,-0.05407486,-0.03020680,-0.01649805,0.01056203,
  -0.06673015,-0.08229845,-0.06446496,-0.00805442,0.01577269,0.03415653,-0.07742367,0.01700359,0.17163551,0.05156912,
  -0.00936011,0.03414387,0.08265474,0.04353242,0.03979041,-0.06819776,0.02319470,0.11084493,-0.01781690,-0.06226075,
  0.16105935,0.04321294,-0.05513865,0.06915456,-0.07572094,-0.04554362,0.09154747,0.03478420,-0.08102807,0.07007145,
  0.08968863,0.08313930,0.01045923,-0.10692284,-0.01140203,-0.05888771,-0.10054824,-0.04713923,-0.01787115,-0.03004444,
  0.14034051,0.04794206,0.01637040,-0.04191297,-0.11462808,-0.03115513,-0.07029319,-0.20601858,0.06268483,0.07429541,
  -0.04611922,0.01234564,-0.05400692,0.01674995,-0.14318904,-0.10966338,0.06309272,-0.19551274,-0.02734544,-0.01395333,
  -0.09143700,-0.00151937,0.10566960,-0.04439338,0.00480806,0.02058223,0.02963527,0.08328791,-0.01482771,-0.09156584,
  -0.02603794,-0.00931189,-0.12497678,-0.00936300,-0.01875222,0.01002778,0.06782261,0.03614913,-0.00036765,-0.03566178,
  -0.04747635,0.02113252,-0.01202373,-0.07738139,0.12050396,0.06366142,-0.05927378,-0.02432414,-0.01618686,0.04133330,
  -0.02613514,0.01412694,0.05348671,0.09239198,-0.08216722,-0.06705435,-0.09112579,0.05493027,0.04572473,-0.07451209,
  -0.03268363,0.08208933,-0.02187037,0.01098371,-0.01621344,-0.11969744,-0.03608203,-0.09486015,-0.06646705,-0.00543952,
  -0.03070923,-0.08058953,0.03869558,-0.03977753,-0.05720892,-0.01695931,0.09140107,-0.01019931,0.08443739,0.07641692,
  0.00801786,0.03985691,0.05465766,-0.03584458,0.01241251,-0.06829873,0.02907232,-0.02687340,0.00121854,0.09257632,
  0.07351575,-0.02407427,-0.10760426,-0.06584661,-0.07849827,-0.09984338,-0.01465937,-0.02309822,-0.11800806,0.02275541,
  0.06990588,-0.09614434,0.06436536,-0.03108205,-0.05762724,-0.05146524,0.02746894,0.00193853,-0.00252782,0.02890621,
  0.03658624,0.02797024,-0.03421697,0.08204176,0.08600313,-0.07875292,0.09720747,0.06936900,-0.12810448,-0.11597483,
  -0.03993806,-0.04469555,-0.03103884,0.13708569,0.00925605,-0.07276747,0.15385042,-0.04174504,-0.03165650,-0.04633098,
  -0.02827499,-0.08908079,-0.03529613,0.02882972,-0.01439905,-0.01120357,-0.10428312,-0.07709391,-0.17120738,0.02533046,
  0.05305329,-0.02045056,0.03905369,0.01401954,-0.06037217,-0.01760003,-0.01006392,0.06328336,-0.04663202,-0.01009664,
  0.09055586,-0.12902628,0.07318766,0.03910778,0.01074776,-0.13209140,-0.05955327,-0.08587965,0.00172946,0.03737841,
  -0.04225890,-0.01210664,0.08307877,-0.01321312,-0.10930406,-0.05843604,-0.10907547,0.07064126,0.03229216,-0.01899325,
  0.03593481,0.03618938,-0.03759744,-0.02247133,-0.05532342,-0.03093232,0.11373679,0.11656152,-0.01987498,0.10415410,
  0.03361770,0.07732764,-0.01713100,0.04243266,0.04369011,-0.04598968,-0.02078829,0.01299005,-0.04776885,0.03917760,
  -0.03286482,0.00202130,0.00774728,-0.03667085,-0.03176206,0.02403276,-0.00461220,0.01955457,0.08112665,0.01044981,
  0.12077615,0.05226053,-0.04641334,0.04791653,0.19945607,0.13435785,0.22520295,0.22443283,-0.13531289,-0.15734001,
  0.05071016,-0.06445181,0.05847630,0.10692478,0.06449068,-0.00131340,0.11824180,0.03376040,0.00679874,-0.02204515,
  0.04125610,-0.00355219,0.00832286,-0.00905659,-0.05403373,-0.00976103,-0.10907318,-0.08851740,-0.14403401,0.00950990,
  0.01912773,0.01549085,0.03066105,-0.02700292,0.01142552,-0.23073712,-0.33458760,-0.23656575,-0.23748407,-0.30557209,
  -0.11670031,-0.21896911,-0.25951123,-0.32275906,-0.03021159,-0.07428291,-0.09353627,-0.03739269,-0.00135098,0.05031549,
  0.02077695,-0.02219158,0.04115262,-0.04550852,-0.12066015,-0.11207623,-0.02538400,-0.03285615,0.05479450,-0.06003193,
  -0.10819627,-0.01641859,0.04941307,0.06430810,-0.02299270,-0.02141681,0.04138401,0.00177148,-0.03662835,0.09851226,
  0.04477323,-0.03083506,-0.08281644,-0.06858805,-0.08132694,0.00278492,0.00825651,0.00542706,0.03210180,0.05924769,
  -0.04291859,-0.08885556,-0.08070245,0.03781969,-0.02772484,-0.02602032,0.03987756,-0.03168103,0.03517362,0.06293815,
  0.00740838,-0.04519743,0.06153781,0.01731979,-0.05105900,0.09227548,-0.06967355,-0.10446946,-0.06875709,-0.01134488,
  -0.12708738,-0.01210478,0.10609742,-0.02444815,-0.02684096,0.11933973,-0.01457490,-0.04114150,-0.03073967,-0.09578314,
  -0.07723741,0.04094003,0.10547139,0.07352471,-0.03951446,0.00679526,0.05183768,-0.01534457,0.12398667,-0.00151762,
  0.07039346,0.17110038,0.06499214,0.09088251,0.21825539,-0.00072929,-0.05674188,0.04264777,-0.02290484,-0.08946509,
  -0.06769895,0.00749618,-0.06002140,-0.03845972,0.07798984,0.05057798,0.02772480,0.03671810,0.10089765,-0.09173428,
  0.05454931,0.05784775,-0.00062191,-0.03546922,0.03372906,-0.06480546,-0.01203457,0.06719217,0.02274684,0.04159580,
  0.08467147,0.08708937,0.03281255,-0.06161471,-0.03655245,0.03268720,-0.03865056,-0.02338863,0.08751914,-0.05001739,
  -0.00102891,-0.12300368,-0.05228929,-0.04888887,-0.05185312,0.08236670,0.03302100,-0.01300951,0.07370146,-0.01680148,
  0.03435551,-0.06262315,-0.03630704,-0.05943378,-0.05478850,-0.13972819,0.04164041,-0.14100544,-0.08456454,0.02813743,
  -0.04773119,0.05374904,0.04251672,0.07792588,0.16374643,0.03645560,0.02926870,0.09690975,-0.07448365,-0.08759471,
  -0.07969388,-0.05710833,-0.24688473,0.01098340,-0.01465990,0.05822076,-0.10272782,-0.10141218,-0.22864205,0.03811488,
  0.00493018,-0.01664557,0.13157521,0.13663049,-0.15585533,0.02032315,-0.01542198,0.10092908,0.15183157,0.11510201,
  0.14806168,0.06543368,0.12774476,0.09345985,-0.01819350,0.05646659,-0.02707293,0.08544818,0.02749819,0.07206697,
  0.05316201,0.05444061,0.01873103,0.03882496,0.01221044,-0.09643053,0.04480711,0.14187257,-0.02203786,0.06264440,
  -0.02105154,-0.10780855,0.07764342,-0.01685608,-0.03917672,-0.06439216,-0.07412992,-0.02834357,0.01807826,-0.10849302,
  0.08148507,0.00157546,0.00236566,-0.10264459,0.01234988,-0.02672044,-0.09398507,0.03819266,0.01564385,0.04795081,
  -0.06221588,0.00377333,-0.18894605,0.05860739,-0.00179708,-0.07736929,0.03538728,0.13971214,-0.17568474,0.07032025,
  -0.04973332,-0.15728773,0.07155068,0.00722616,-0.08496794,0.13681723,0.09357653,-0.15019317,0.09180760,-0.07422400,
  -0.10466012,-0.04844513,0.02312585,-0.11102665,-0.02375179,0.00136288,0.11690965,-0.13059030,0.00363290,-0.24405070,
  -0.05297266,0.04892737,-0.24750346,0.07880683,0.13845691,0.03036030,-0.08429738,-0.08707841,-0.22218625,-0.14123188,
  -0.31796095,0.06745359,-0.02235559,-0.12845799,-0.17041647,0.23641053,0.01455870,-0.10398936,0.07565976,0.12534130,
  -0.09853210,0.04210478,0.03285391,-0.12449521,-0.05729626,0.01761499,-0.20015147,-0.06771179,-0.05788544,-0.16133885,
  -0.03328315,0.04235524,0.12143134,-0.23023483,0.01467777,-0.03973762,0.03817996,0.12226601,-0.08747520,0.00195749,
  0.00996270,0.01288520,0.08113711,0.00880835,-0.01808990,-0.12072650,0.11856245,0.04900192,0.05751174,0.01598604,
  0.01248184,-0.00981142,0.03672940,0.01642866,-0.02797443,0.07649039,0.05415345,0.00155374,0.02578339,-0.01014604,
  -0.07365970,-0.11674330,-0.06088186,-0.04218721,0.16978113,-0.09880362,-0.02788546,0.08615294,-0.18156898,-0.10752106,
  -0.01046449,-0.23126210,-0.00208118,0.04558807,-0.18376090,0.08412095,0.13930996,-0.00833145,0.03787138,-0.04608642,
  -0.20707458,0.06954387,0.07880545,-0.12809350,0.06482882,0.09562552,0.06087789,-0.03522944,0.05802771,0.00178143,
  -0.15452786,0.04004071,0.05735798,-0.12797821,0.02784364,0.05610193,-0.01220185,0.00661161,0.03199273,-0.27278247,
  0.07904188,0.11712668,-0.17866048,0.06843930,0.07714151,0.05970328,-0.02645525,-0.06314937,0.01706818,0.04807318,
  -0.02172537,0.09989128,0.02433785,-0.11693932,0.06153410,-0.07380883,-0.02153161,-0.01015892,0.02924678,-0.00058657,
  0.02594597,0.07742696,-0.04964658,0.14002438,0.10683583,0.03304494,-0.14557183,0.00198621,0.00546186,-0.31336114,
  0.04614474,0.07175434,0.19867025,-0.03723604,-0.15793326,-0.10626018,-0.00722296,-0.12331183,-0.08892755,-0.03665049,
  0.10997651,-0.11714042,-0.07030415,-0.05991176,-0.03741044,-0.03282494,-0.14091974,0.03676634,-0.01564872,-0.01245954,
  -0.05773547,-0.04283848,-0.16607650,0.09469683,-0.02472833,-0.16168420,0.08489285,-0.02087669,-0.22080372,0.10643274,
  0.08788424,0.03770898,-0.16140684,0.09059962,0.08719320,-0.19086100,0.04371405,-0.04728702,-0.16493158,-0.05974960,
  -0.19684547,0.04575510,-0.08204328,-0.07090844,0.16418506,0.01870534,-0.06636798,0.22063367,-0.06554782,-0.10815822,
  -0.18831708,-0.02782922,-0.17223378,0.03451333,0.08935985,0.14479165,-0.03480365,0.04173861,-0.05132275,-0.08148614,
  0.06537084,0.06252071,-0.14376351,-0.04519527,0.05299361,-0.03817115,-0.12320977,-0.09965804,-0.00282817,-0.01364783,
  -0.10437299,0.04105388,-0.14543724,-0.06063147,0.02296274,-0.03712922,-0.05328197,0.09240355,-0.03039479,0.03672978,
  0.01941170,-0.00087740,0.07002867,0.02965010,0.11618507,-0.14769726,0.06936580,0.11321133,-0.10691036,0.10274622,
  -0.02880483,-0.08272073,-0.05008449,-0.04133781,-0.06425998,-0.00356740,-0.05458272,0.00602086,-0.01407080,-0.03629393,
  -0.03439327,0.03329514,-0.04305048,-0.01063224,-0.10807613,0.04582171,0.03697257,-0.00463861,0.10749447,0.07335374,
  -0.02432242,-0.02284982,-0.11775538,0.00145062,-0.11739495,-0.04657864,0.01475556,-0.10966638,0.03005343,0.07207645,
  -0.06628733,-0.04359676,-0.04178990,0.01910861,-0.00718938,-0.03041117,0.06703922,0.02101762,0.00265294,-0.02024297,
  -0.09338091,0.00881035,0.03853733,-0.03855033,0.07136708,0.01821668,0.01412293,0.04401019,0.02007016,0.05831760,
  0.11378619,-0.07787171,0.10942534,0.07353401,0.03058625,0.14703250,0.15350072,-0.15701342,-0.13565339,-0.00830988,
  -0.06953644,-0.14555643,-0.01807977,-0.09066528,-0.08305610,0.01010128,-0.02444647,-0.04851006,-0.04011964,-0.08883283,
  -0.02331055,-0.01467770,-0.00917141,0.00918256,-0.00884290,0.02853487,0.06325579,-0.06472477,-0.06986757,0.14743295,
  -0.06146304,0.03309710,0.15558353,0.09808453,0.08480883,-0.12196192,-0.02138158,-0.04277234,-0.03266176,0.01732641,
  0.03931383,0.06256681,0.04386255,-0.05203197,-0.07574482,-0.05189894,-0.09885419,-0.07687205,-0.02182980,-0.07386588,
  -0.10568981,-0.02241700,0.00785177,-0.11204673,-0.15614215,0.00106635,-0.10346506,-0.07546695,0.02354082,-0.04929572,
  -0.07093058,-0.06511997,-0.02639141,-0.07519304,-0.22008498,-0.11099490,-0.02503808,-0.36563793,-0.14148070,-0.07842425,
